<?xml version="1.0"?>
<MethodSetup Method="BDT::BDT">
  <GeneralInfo>
    <Info name="TMVA Release" value="4.2.1 [262657]"/>
    <Info name="ROOT Release" value="6.25/01 [399617]"/>
    <Info name="Creator" value="diagoras"/>
    <Info name="Date" value="Tue Mar 23 18:54:27 2021"/>
    <Info name="Host" value="Linux enterprise 5.8.0-45-generic #51~20.04.1-Ubuntu SMP Tue Feb 23 13:46:31 UTC 2021 x86_64 x86_64 x86_64 GNU/Linux"/>
    <Info name="Dir" value="/home/diagoras/root_cern/root"/>
    <Info name="Training events" value="8000"/>
    <Info name="TrainingTime" value="8.29462695e+00"/>
    <Info name="AnalysisType" value="Classification"/>
  </GeneralInfo>
  <Options>
    <Option name="V" modified="Yes">False</Option>
    <Option name="VerbosityLevel" modified="No">Default</Option>
    <Option name="VarTransform" modified="No">None</Option>
    <Option name="H" modified="No">False</Option>
    <Option name="CreateMVAPdfs" modified="No">False</Option>
    <Option name="IgnoreNegWeightsInTraining" modified="No">False</Option>
    <Option name="NTrees" modified="Yes">400</Option>
    <Option name="MaxDepth" modified="Yes">2</Option>
    <Option name="MinNodeSize" modified="Yes">2.5%</Option>
    <Option name="nCuts" modified="Yes">20</Option>
    <Option name="BoostType" modified="Yes">AdaBoost</Option>
    <Option name="AdaBoostR2Loss" modified="No">quadratic</Option>
    <Option name="UseBaggedBoost" modified="Yes">True</Option>
    <Option name="Shrinkage" modified="No">1.000000e+00</Option>
    <Option name="AdaBoostBeta" modified="Yes">5.000000e-01</Option>
    <Option name="UseRandomisedTrees" modified="No">False</Option>
    <Option name="UseNvars" modified="No">16</Option>
    <Option name="UsePoissonNvars" modified="No">True</Option>
    <Option name="BaggedSampleFraction" modified="Yes">5.000000e-01</Option>
    <Option name="UseYesNoLeaf" modified="No">True</Option>
    <Option name="NegWeightTreatment" modified="No">inverseboostnegweights</Option>
    <Option name="Css" modified="No">1.000000e+00</Option>
    <Option name="Cts_sb" modified="No">1.000000e+00</Option>
    <Option name="Ctb_ss" modified="No">1.000000e+00</Option>
    <Option name="Cbb" modified="No">1.000000e+00</Option>
    <Option name="NodePurityLimit" modified="No">5.000000e-01</Option>
    <Option name="SeparationType" modified="Yes">giniindex</Option>
    <Option name="RegressionLossFunctionBDTG" modified="No">huber</Option>
    <Option name="HuberQuantile" modified="No">7.000000e-01</Option>
    <Option name="DoBoostMonitor" modified="No">False</Option>
    <Option name="UseFisherCuts" modified="No">False</Option>
    <Option name="MinLinCorrForFisher" modified="No">8.000000e-01</Option>
    <Option name="UseExclusiveVars" modified="No">False</Option>
    <Option name="DoPreselection" modified="No">False</Option>
    <Option name="SigToBkgFraction" modified="No">1.000000e+00</Option>
    <Option name="PruneMethod" modified="No">nopruning</Option>
    <Option name="PruneStrength" modified="No">0.000000e+00</Option>
    <Option name="PruningValFraction" modified="No">5.000000e-01</Option>
    <Option name="SkipNormalization" modified="No">False</Option>
    <Option name="nEventsMin" modified="No">0</Option>
    <Option name="UseBaggedGrad" modified="No">False</Option>
    <Option name="GradBaggingFraction" modified="No">5.000000e-01</Option>
    <Option name="UseNTrainEvents" modified="No">0</Option>
    <Option name="NNodesMax" modified="No">0</Option>
  </Options>
  <Variables NVar="256">
    <Variable VarIndex="0" Expression="vars" Label="vars" Title="[0]" Unit="" Internal="vars[0]" Type="F[]" Min="3.40282347e+38" Max="-3.40282347e+38"/>
    <Variable VarIndex="1" Expression="vars" Label="vars" Title="[1]" Unit="" Internal="vars[1]" Type="F[]" Min="3.40282347e+38" Max="-3.40282347e+38"/>
    <Variable VarIndex="2" Expression="vars" Label="vars" Title="[2]" Unit="" Internal="vars[2]" Type="F[]" Min="3.40282347e+38" Max="-3.40282347e+38"/>
    <Variable VarIndex="3" Expression="vars" Label="vars" Title="[3]" Unit="" Internal="vars[3]" Type="F[]" Min="3.40282347e+38" Max="-3.40282347e+38"/>
    <Variable VarIndex="4" Expression="vars" Label="vars" Title="[4]" Unit="" Internal="vars[4]" Type="F[]" Min="3.40282347e+38" Max="-3.40282347e+38"/>
    <Variable VarIndex="5" Expression="vars" Label="vars" Title="[5]" Unit="" Internal="vars[5]" Type="F[]" Min="3.40282347e+38" Max="-3.40282347e+38"/>
    <Variable VarIndex="6" Expression="vars" Label="vars" Title="[6]" Unit="" Internal="vars[6]" Type="F[]" Min="3.40282347e+38" Max="-3.40282347e+38"/>
    <Variable VarIndex="7" Expression="vars" Label="vars" Title="[7]" Unit="" Internal="vars[7]" Type="F[]" Min="3.40282347e+38" Max="-3.40282347e+38"/>
    <Variable VarIndex="8" Expression="vars" Label="vars" Title="[8]" Unit="" Internal="vars[8]" Type="F[]" Min="3.40282347e+38" Max="-3.40282347e+38"/>
    <Variable VarIndex="9" Expression="vars" Label="vars" Title="[9]" Unit="" Internal="vars[9]" Type="F[]" Min="3.40282347e+38" Max="-3.40282347e+38"/>
    <Variable VarIndex="10" Expression="vars" Label="vars" Title="[10]" Unit="" Internal="vars[10]" Type="F[]" Min="3.40282347e+38" Max="-3.40282347e+38"/>
    <Variable VarIndex="11" Expression="vars" Label="vars" Title="[11]" Unit="" Internal="vars[11]" Type="F[]" Min="3.40282347e+38" Max="-3.40282347e+38"/>
    <Variable VarIndex="12" Expression="vars" Label="vars" Title="[12]" Unit="" Internal="vars[12]" Type="F[]" Min="3.40282347e+38" Max="-3.40282347e+38"/>
    <Variable VarIndex="13" Expression="vars" Label="vars" Title="[13]" Unit="" Internal="vars[13]" Type="F[]" Min="3.40282347e+38" Max="-3.40282347e+38"/>
    <Variable VarIndex="14" Expression="vars" Label="vars" Title="[14]" Unit="" Internal="vars[14]" Type="F[]" Min="3.40282347e+38" Max="-3.40282347e+38"/>
    <Variable VarIndex="15" Expression="vars" Label="vars" Title="[15]" Unit="" Internal="vars[15]" Type="F[]" Min="3.40282347e+38" Max="-3.40282347e+38"/>
    <Variable VarIndex="16" Expression="vars" Label="vars" Title="[16]" Unit="" Internal="vars[16]" Type="F[]" Min="3.40282347e+38" Max="-3.40282347e+38"/>
    <Variable VarIndex="17" Expression="vars" Label="vars" Title="[17]" Unit="" Internal="vars[17]" Type="F[]" Min="3.40282347e+38" Max="-3.40282347e+38"/>
    <Variable VarIndex="18" Expression="vars" Label="vars" Title="[18]" Unit="" Internal="vars[18]" Type="F[]" Min="3.40282347e+38" Max="-3.40282347e+38"/>
    <Variable VarIndex="19" Expression="vars" Label="vars" Title="[19]" Unit="" Internal="vars[19]" Type="F[]" Min="3.40282347e+38" Max="-3.40282347e+38"/>
    <Variable VarIndex="20" Expression="vars" Label="vars" Title="[20]" Unit="" Internal="vars[20]" Type="F[]" Min="3.40282347e+38" Max="-3.40282347e+38"/>
    <Variable VarIndex="21" Expression="vars" Label="vars" Title="[21]" Unit="" Internal="vars[21]" Type="F[]" Min="3.40282347e+38" Max="-3.40282347e+38"/>
    <Variable VarIndex="22" Expression="vars" Label="vars" Title="[22]" Unit="" Internal="vars[22]" Type="F[]" Min="3.40282347e+38" Max="-3.40282347e+38"/>
    <Variable VarIndex="23" Expression="vars" Label="vars" Title="[23]" Unit="" Internal="vars[23]" Type="F[]" Min="3.40282347e+38" Max="-3.40282347e+38"/>
    <Variable VarIndex="24" Expression="vars" Label="vars" Title="[24]" Unit="" Internal="vars[24]" Type="F[]" Min="3.40282347e+38" Max="-3.40282347e+38"/>
    <Variable VarIndex="25" Expression="vars" Label="vars" Title="[25]" Unit="" Internal="vars[25]" Type="F[]" Min="3.40282347e+38" Max="-3.40282347e+38"/>
    <Variable VarIndex="26" Expression="vars" Label="vars" Title="[26]" Unit="" Internal="vars[26]" Type="F[]" Min="3.40282347e+38" Max="-3.40282347e+38"/>
    <Variable VarIndex="27" Expression="vars" Label="vars" Title="[27]" Unit="" Internal="vars[27]" Type="F[]" Min="3.40282347e+38" Max="-3.40282347e+38"/>
    <Variable VarIndex="28" Expression="vars" Label="vars" Title="[28]" Unit="" Internal="vars[28]" Type="F[]" Min="3.40282347e+38" Max="-3.40282347e+38"/>
    <Variable VarIndex="29" Expression="vars" Label="vars" Title="[29]" Unit="" Internal="vars[29]" Type="F[]" Min="3.40282347e+38" Max="-3.40282347e+38"/>
    <Variable VarIndex="30" Expression="vars" Label="vars" Title="[30]" Unit="" Internal="vars[30]" Type="F[]" Min="3.40282347e+38" Max="-3.40282347e+38"/>
    <Variable VarIndex="31" Expression="vars" Label="vars" Title="[31]" Unit="" Internal="vars[31]" Type="F[]" Min="3.40282347e+38" Max="-3.40282347e+38"/>
    <Variable VarIndex="32" Expression="vars" Label="vars" Title="[32]" Unit="" Internal="vars[32]" Type="F[]" Min="3.40282347e+38" Max="-3.40282347e+38"/>
    <Variable VarIndex="33" Expression="vars" Label="vars" Title="[33]" Unit="" Internal="vars[33]" Type="F[]" Min="3.40282347e+38" Max="-3.40282347e+38"/>
    <Variable VarIndex="34" Expression="vars" Label="vars" Title="[34]" Unit="" Internal="vars[34]" Type="F[]" Min="3.40282347e+38" Max="-3.40282347e+38"/>
    <Variable VarIndex="35" Expression="vars" Label="vars" Title="[35]" Unit="" Internal="vars[35]" Type="F[]" Min="3.40282347e+38" Max="-3.40282347e+38"/>
    <Variable VarIndex="36" Expression="vars" Label="vars" Title="[36]" Unit="" Internal="vars[36]" Type="F[]" Min="3.40282347e+38" Max="-3.40282347e+38"/>
    <Variable VarIndex="37" Expression="vars" Label="vars" Title="[37]" Unit="" Internal="vars[37]" Type="F[]" Min="3.40282347e+38" Max="-3.40282347e+38"/>
    <Variable VarIndex="38" Expression="vars" Label="vars" Title="[38]" Unit="" Internal="vars[38]" Type="F[]" Min="3.40282347e+38" Max="-3.40282347e+38"/>
    <Variable VarIndex="39" Expression="vars" Label="vars" Title="[39]" Unit="" Internal="vars[39]" Type="F[]" Min="3.40282347e+38" Max="-3.40282347e+38"/>
    <Variable VarIndex="40" Expression="vars" Label="vars" Title="[40]" Unit="" Internal="vars[40]" Type="F[]" Min="3.40282347e+38" Max="-3.40282347e+38"/>
    <Variable VarIndex="41" Expression="vars" Label="vars" Title="[41]" Unit="" Internal="vars[41]" Type="F[]" Min="3.40282347e+38" Max="-3.40282347e+38"/>
    <Variable VarIndex="42" Expression="vars" Label="vars" Title="[42]" Unit="" Internal="vars[42]" Type="F[]" Min="3.40282347e+38" Max="-3.40282347e+38"/>
    <Variable VarIndex="43" Expression="vars" Label="vars" Title="[43]" Unit="" Internal="vars[43]" Type="F[]" Min="3.40282347e+38" Max="-3.40282347e+38"/>
    <Variable VarIndex="44" Expression="vars" Label="vars" Title="[44]" Unit="" Internal="vars[44]" Type="F[]" Min="3.40282347e+38" Max="-3.40282347e+38"/>
    <Variable VarIndex="45" Expression="vars" Label="vars" Title="[45]" Unit="" Internal="vars[45]" Type="F[]" Min="3.40282347e+38" Max="-3.40282347e+38"/>
    <Variable VarIndex="46" Expression="vars" Label="vars" Title="[46]" Unit="" Internal="vars[46]" Type="F[]" Min="3.40282347e+38" Max="-3.40282347e+38"/>
    <Variable VarIndex="47" Expression="vars" Label="vars" Title="[47]" Unit="" Internal="vars[47]" Type="F[]" Min="3.40282347e+38" Max="-3.40282347e+38"/>
    <Variable VarIndex="48" Expression="vars" Label="vars" Title="[48]" Unit="" Internal="vars[48]" Type="F[]" Min="3.40282347e+38" Max="-3.40282347e+38"/>
    <Variable VarIndex="49" Expression="vars" Label="vars" Title="[49]" Unit="" Internal="vars[49]" Type="F[]" Min="3.40282347e+38" Max="-3.40282347e+38"/>
    <Variable VarIndex="50" Expression="vars" Label="vars" Title="[50]" Unit="" Internal="vars[50]" Type="F[]" Min="3.40282347e+38" Max="-3.40282347e+38"/>
    <Variable VarIndex="51" Expression="vars" Label="vars" Title="[51]" Unit="" Internal="vars[51]" Type="F[]" Min="3.40282347e+38" Max="-3.40282347e+38"/>
    <Variable VarIndex="52" Expression="vars" Label="vars" Title="[52]" Unit="" Internal="vars[52]" Type="F[]" Min="3.40282347e+38" Max="-3.40282347e+38"/>
    <Variable VarIndex="53" Expression="vars" Label="vars" Title="[53]" Unit="" Internal="vars[53]" Type="F[]" Min="3.40282347e+38" Max="-3.40282347e+38"/>
    <Variable VarIndex="54" Expression="vars" Label="vars" Title="[54]" Unit="" Internal="vars[54]" Type="F[]" Min="3.40282347e+38" Max="-3.40282347e+38"/>
    <Variable VarIndex="55" Expression="vars" Label="vars" Title="[55]" Unit="" Internal="vars[55]" Type="F[]" Min="3.40282347e+38" Max="-3.40282347e+38"/>
    <Variable VarIndex="56" Expression="vars" Label="vars" Title="[56]" Unit="" Internal="vars[56]" Type="F[]" Min="3.40282347e+38" Max="-3.40282347e+38"/>
    <Variable VarIndex="57" Expression="vars" Label="vars" Title="[57]" Unit="" Internal="vars[57]" Type="F[]" Min="3.40282347e+38" Max="-3.40282347e+38"/>
    <Variable VarIndex="58" Expression="vars" Label="vars" Title="[58]" Unit="" Internal="vars[58]" Type="F[]" Min="3.40282347e+38" Max="-3.40282347e+38"/>
    <Variable VarIndex="59" Expression="vars" Label="vars" Title="[59]" Unit="" Internal="vars[59]" Type="F[]" Min="3.40282347e+38" Max="-3.40282347e+38"/>
    <Variable VarIndex="60" Expression="vars" Label="vars" Title="[60]" Unit="" Internal="vars[60]" Type="F[]" Min="3.40282347e+38" Max="-3.40282347e+38"/>
    <Variable VarIndex="61" Expression="vars" Label="vars" Title="[61]" Unit="" Internal="vars[61]" Type="F[]" Min="3.40282347e+38" Max="-3.40282347e+38"/>
    <Variable VarIndex="62" Expression="vars" Label="vars" Title="[62]" Unit="" Internal="vars[62]" Type="F[]" Min="3.40282347e+38" Max="-3.40282347e+38"/>
    <Variable VarIndex="63" Expression="vars" Label="vars" Title="[63]" Unit="" Internal="vars[63]" Type="F[]" Min="3.40282347e+38" Max="-3.40282347e+38"/>
    <Variable VarIndex="64" Expression="vars" Label="vars" Title="[64]" Unit="" Internal="vars[64]" Type="F[]" Min="3.40282347e+38" Max="-3.40282347e+38"/>
    <Variable VarIndex="65" Expression="vars" Label="vars" Title="[65]" Unit="" Internal="vars[65]" Type="F[]" Min="3.40282347e+38" Max="-3.40282347e+38"/>
    <Variable VarIndex="66" Expression="vars" Label="vars" Title="[66]" Unit="" Internal="vars[66]" Type="F[]" Min="3.40282347e+38" Max="-3.40282347e+38"/>
    <Variable VarIndex="67" Expression="vars" Label="vars" Title="[67]" Unit="" Internal="vars[67]" Type="F[]" Min="3.40282347e+38" Max="-3.40282347e+38"/>
    <Variable VarIndex="68" Expression="vars" Label="vars" Title="[68]" Unit="" Internal="vars[68]" Type="F[]" Min="3.40282347e+38" Max="-3.40282347e+38"/>
    <Variable VarIndex="69" Expression="vars" Label="vars" Title="[69]" Unit="" Internal="vars[69]" Type="F[]" Min="3.40282347e+38" Max="-3.40282347e+38"/>
    <Variable VarIndex="70" Expression="vars" Label="vars" Title="[70]" Unit="" Internal="vars[70]" Type="F[]" Min="3.40282347e+38" Max="-3.40282347e+38"/>
    <Variable VarIndex="71" Expression="vars" Label="vars" Title="[71]" Unit="" Internal="vars[71]" Type="F[]" Min="3.40282347e+38" Max="-3.40282347e+38"/>
    <Variable VarIndex="72" Expression="vars" Label="vars" Title="[72]" Unit="" Internal="vars[72]" Type="F[]" Min="3.40282347e+38" Max="-3.40282347e+38"/>
    <Variable VarIndex="73" Expression="vars" Label="vars" Title="[73]" Unit="" Internal="vars[73]" Type="F[]" Min="3.40282347e+38" Max="-3.40282347e+38"/>
    <Variable VarIndex="74" Expression="vars" Label="vars" Title="[74]" Unit="" Internal="vars[74]" Type="F[]" Min="3.40282347e+38" Max="-3.40282347e+38"/>
    <Variable VarIndex="75" Expression="vars" Label="vars" Title="[75]" Unit="" Internal="vars[75]" Type="F[]" Min="3.40282347e+38" Max="-3.40282347e+38"/>
    <Variable VarIndex="76" Expression="vars" Label="vars" Title="[76]" Unit="" Internal="vars[76]" Type="F[]" Min="3.40282347e+38" Max="-3.40282347e+38"/>
    <Variable VarIndex="77" Expression="vars" Label="vars" Title="[77]" Unit="" Internal="vars[77]" Type="F[]" Min="3.40282347e+38" Max="-3.40282347e+38"/>
    <Variable VarIndex="78" Expression="vars" Label="vars" Title="[78]" Unit="" Internal="vars[78]" Type="F[]" Min="3.40282347e+38" Max="-3.40282347e+38"/>
    <Variable VarIndex="79" Expression="vars" Label="vars" Title="[79]" Unit="" Internal="vars[79]" Type="F[]" Min="3.40282347e+38" Max="-3.40282347e+38"/>
    <Variable VarIndex="80" Expression="vars" Label="vars" Title="[80]" Unit="" Internal="vars[80]" Type="F[]" Min="3.40282347e+38" Max="-3.40282347e+38"/>
    <Variable VarIndex="81" Expression="vars" Label="vars" Title="[81]" Unit="" Internal="vars[81]" Type="F[]" Min="3.40282347e+38" Max="-3.40282347e+38"/>
    <Variable VarIndex="82" Expression="vars" Label="vars" Title="[82]" Unit="" Internal="vars[82]" Type="F[]" Min="3.40282347e+38" Max="-3.40282347e+38"/>
    <Variable VarIndex="83" Expression="vars" Label="vars" Title="[83]" Unit="" Internal="vars[83]" Type="F[]" Min="3.40282347e+38" Max="-3.40282347e+38"/>
    <Variable VarIndex="84" Expression="vars" Label="vars" Title="[84]" Unit="" Internal="vars[84]" Type="F[]" Min="3.40282347e+38" Max="-3.40282347e+38"/>
    <Variable VarIndex="85" Expression="vars" Label="vars" Title="[85]" Unit="" Internal="vars[85]" Type="F[]" Min="3.40282347e+38" Max="-3.40282347e+38"/>
    <Variable VarIndex="86" Expression="vars" Label="vars" Title="[86]" Unit="" Internal="vars[86]" Type="F[]" Min="3.40282347e+38" Max="-3.40282347e+38"/>
    <Variable VarIndex="87" Expression="vars" Label="vars" Title="[87]" Unit="" Internal="vars[87]" Type="F[]" Min="3.40282347e+38" Max="-3.40282347e+38"/>
    <Variable VarIndex="88" Expression="vars" Label="vars" Title="[88]" Unit="" Internal="vars[88]" Type="F[]" Min="3.40282347e+38" Max="-3.40282347e+38"/>
    <Variable VarIndex="89" Expression="vars" Label="vars" Title="[89]" Unit="" Internal="vars[89]" Type="F[]" Min="3.40282347e+38" Max="-3.40282347e+38"/>
    <Variable VarIndex="90" Expression="vars" Label="vars" Title="[90]" Unit="" Internal="vars[90]" Type="F[]" Min="3.40282347e+38" Max="-3.40282347e+38"/>
    <Variable VarIndex="91" Expression="vars" Label="vars" Title="[91]" Unit="" Internal="vars[91]" Type="F[]" Min="3.40282347e+38" Max="-3.40282347e+38"/>
    <Variable VarIndex="92" Expression="vars" Label="vars" Title="[92]" Unit="" Internal="vars[92]" Type="F[]" Min="3.40282347e+38" Max="-3.40282347e+38"/>
    <Variable VarIndex="93" Expression="vars" Label="vars" Title="[93]" Unit="" Internal="vars[93]" Type="F[]" Min="3.40282347e+38" Max="-3.40282347e+38"/>
    <Variable VarIndex="94" Expression="vars" Label="vars" Title="[94]" Unit="" Internal="vars[94]" Type="F[]" Min="3.40282347e+38" Max="-3.40282347e+38"/>
    <Variable VarIndex="95" Expression="vars" Label="vars" Title="[95]" Unit="" Internal="vars[95]" Type="F[]" Min="3.40282347e+38" Max="-3.40282347e+38"/>
    <Variable VarIndex="96" Expression="vars" Label="vars" Title="[96]" Unit="" Internal="vars[96]" Type="F[]" Min="3.40282347e+38" Max="-3.40282347e+38"/>
    <Variable VarIndex="97" Expression="vars" Label="vars" Title="[97]" Unit="" Internal="vars[97]" Type="F[]" Min="3.40282347e+38" Max="-3.40282347e+38"/>
    <Variable VarIndex="98" Expression="vars" Label="vars" Title="[98]" Unit="" Internal="vars[98]" Type="F[]" Min="3.40282347e+38" Max="-3.40282347e+38"/>
    <Variable VarIndex="99" Expression="vars" Label="vars" Title="[99]" Unit="" Internal="vars[99]" Type="F[]" Min="3.40282347e+38" Max="-3.40282347e+38"/>
    <Variable VarIndex="100" Expression="vars" Label="vars" Title="[100]" Unit="" Internal="vars[100]" Type="F[]" Min="3.40282347e+38" Max="-3.40282347e+38"/>
    <Variable VarIndex="101" Expression="vars" Label="vars" Title="[101]" Unit="" Internal="vars[101]" Type="F[]" Min="3.40282347e+38" Max="-3.40282347e+38"/>
    <Variable VarIndex="102" Expression="vars" Label="vars" Title="[102]" Unit="" Internal="vars[102]" Type="F[]" Min="3.40282347e+38" Max="-3.40282347e+38"/>
    <Variable VarIndex="103" Expression="vars" Label="vars" Title="[103]" Unit="" Internal="vars[103]" Type="F[]" Min="3.40282347e+38" Max="-3.40282347e+38"/>
    <Variable VarIndex="104" Expression="vars" Label="vars" Title="[104]" Unit="" Internal="vars[104]" Type="F[]" Min="3.40282347e+38" Max="-3.40282347e+38"/>
    <Variable VarIndex="105" Expression="vars" Label="vars" Title="[105]" Unit="" Internal="vars[105]" Type="F[]" Min="3.40282347e+38" Max="-3.40282347e+38"/>
    <Variable VarIndex="106" Expression="vars" Label="vars" Title="[106]" Unit="" Internal="vars[106]" Type="F[]" Min="3.40282347e+38" Max="-3.40282347e+38"/>
    <Variable VarIndex="107" Expression="vars" Label="vars" Title="[107]" Unit="" Internal="vars[107]" Type="F[]" Min="3.40282347e+38" Max="-3.40282347e+38"/>
    <Variable VarIndex="108" Expression="vars" Label="vars" Title="[108]" Unit="" Internal="vars[108]" Type="F[]" Min="3.40282347e+38" Max="-3.40282347e+38"/>
    <Variable VarIndex="109" Expression="vars" Label="vars" Title="[109]" Unit="" Internal="vars[109]" Type="F[]" Min="3.40282347e+38" Max="-3.40282347e+38"/>
    <Variable VarIndex="110" Expression="vars" Label="vars" Title="[110]" Unit="" Internal="vars[110]" Type="F[]" Min="3.40282347e+38" Max="-3.40282347e+38"/>
    <Variable VarIndex="111" Expression="vars" Label="vars" Title="[111]" Unit="" Internal="vars[111]" Type="F[]" Min="3.40282347e+38" Max="-3.40282347e+38"/>
    <Variable VarIndex="112" Expression="vars" Label="vars" Title="[112]" Unit="" Internal="vars[112]" Type="F[]" Min="3.40282347e+38" Max="-3.40282347e+38"/>
    <Variable VarIndex="113" Expression="vars" Label="vars" Title="[113]" Unit="" Internal="vars[113]" Type="F[]" Min="3.40282347e+38" Max="-3.40282347e+38"/>
    <Variable VarIndex="114" Expression="vars" Label="vars" Title="[114]" Unit="" Internal="vars[114]" Type="F[]" Min="3.40282347e+38" Max="-3.40282347e+38"/>
    <Variable VarIndex="115" Expression="vars" Label="vars" Title="[115]" Unit="" Internal="vars[115]" Type="F[]" Min="3.40282347e+38" Max="-3.40282347e+38"/>
    <Variable VarIndex="116" Expression="vars" Label="vars" Title="[116]" Unit="" Internal="vars[116]" Type="F[]" Min="3.40282347e+38" Max="-3.40282347e+38"/>
    <Variable VarIndex="117" Expression="vars" Label="vars" Title="[117]" Unit="" Internal="vars[117]" Type="F[]" Min="3.40282347e+38" Max="-3.40282347e+38"/>
    <Variable VarIndex="118" Expression="vars" Label="vars" Title="[118]" Unit="" Internal="vars[118]" Type="F[]" Min="3.40282347e+38" Max="-3.40282347e+38"/>
    <Variable VarIndex="119" Expression="vars" Label="vars" Title="[119]" Unit="" Internal="vars[119]" Type="F[]" Min="3.40282347e+38" Max="-3.40282347e+38"/>
    <Variable VarIndex="120" Expression="vars" Label="vars" Title="[120]" Unit="" Internal="vars[120]" Type="F[]" Min="3.40282347e+38" Max="-3.40282347e+38"/>
    <Variable VarIndex="121" Expression="vars" Label="vars" Title="[121]" Unit="" Internal="vars[121]" Type="F[]" Min="3.40282347e+38" Max="-3.40282347e+38"/>
    <Variable VarIndex="122" Expression="vars" Label="vars" Title="[122]" Unit="" Internal="vars[122]" Type="F[]" Min="3.40282347e+38" Max="-3.40282347e+38"/>
    <Variable VarIndex="123" Expression="vars" Label="vars" Title="[123]" Unit="" Internal="vars[123]" Type="F[]" Min="3.40282347e+38" Max="-3.40282347e+38"/>
    <Variable VarIndex="124" Expression="vars" Label="vars" Title="[124]" Unit="" Internal="vars[124]" Type="F[]" Min="3.40282347e+38" Max="-3.40282347e+38"/>
    <Variable VarIndex="125" Expression="vars" Label="vars" Title="[125]" Unit="" Internal="vars[125]" Type="F[]" Min="3.40282347e+38" Max="-3.40282347e+38"/>
    <Variable VarIndex="126" Expression="vars" Label="vars" Title="[126]" Unit="" Internal="vars[126]" Type="F[]" Min="3.40282347e+38" Max="-3.40282347e+38"/>
    <Variable VarIndex="127" Expression="vars" Label="vars" Title="[127]" Unit="" Internal="vars[127]" Type="F[]" Min="3.40282347e+38" Max="-3.40282347e+38"/>
    <Variable VarIndex="128" Expression="vars" Label="vars" Title="[128]" Unit="" Internal="vars[128]" Type="F[]" Min="3.40282347e+38" Max="-3.40282347e+38"/>
    <Variable VarIndex="129" Expression="vars" Label="vars" Title="[129]" Unit="" Internal="vars[129]" Type="F[]" Min="3.40282347e+38" Max="-3.40282347e+38"/>
    <Variable VarIndex="130" Expression="vars" Label="vars" Title="[130]" Unit="" Internal="vars[130]" Type="F[]" Min="3.40282347e+38" Max="-3.40282347e+38"/>
    <Variable VarIndex="131" Expression="vars" Label="vars" Title="[131]" Unit="" Internal="vars[131]" Type="F[]" Min="3.40282347e+38" Max="-3.40282347e+38"/>
    <Variable VarIndex="132" Expression="vars" Label="vars" Title="[132]" Unit="" Internal="vars[132]" Type="F[]" Min="3.40282347e+38" Max="-3.40282347e+38"/>
    <Variable VarIndex="133" Expression="vars" Label="vars" Title="[133]" Unit="" Internal="vars[133]" Type="F[]" Min="3.40282347e+38" Max="-3.40282347e+38"/>
    <Variable VarIndex="134" Expression="vars" Label="vars" Title="[134]" Unit="" Internal="vars[134]" Type="F[]" Min="3.40282347e+38" Max="-3.40282347e+38"/>
    <Variable VarIndex="135" Expression="vars" Label="vars" Title="[135]" Unit="" Internal="vars[135]" Type="F[]" Min="3.40282347e+38" Max="-3.40282347e+38"/>
    <Variable VarIndex="136" Expression="vars" Label="vars" Title="[136]" Unit="" Internal="vars[136]" Type="F[]" Min="3.40282347e+38" Max="-3.40282347e+38"/>
    <Variable VarIndex="137" Expression="vars" Label="vars" Title="[137]" Unit="" Internal="vars[137]" Type="F[]" Min="3.40282347e+38" Max="-3.40282347e+38"/>
    <Variable VarIndex="138" Expression="vars" Label="vars" Title="[138]" Unit="" Internal="vars[138]" Type="F[]" Min="3.40282347e+38" Max="-3.40282347e+38"/>
    <Variable VarIndex="139" Expression="vars" Label="vars" Title="[139]" Unit="" Internal="vars[139]" Type="F[]" Min="3.40282347e+38" Max="-3.40282347e+38"/>
    <Variable VarIndex="140" Expression="vars" Label="vars" Title="[140]" Unit="" Internal="vars[140]" Type="F[]" Min="3.40282347e+38" Max="-3.40282347e+38"/>
    <Variable VarIndex="141" Expression="vars" Label="vars" Title="[141]" Unit="" Internal="vars[141]" Type="F[]" Min="3.40282347e+38" Max="-3.40282347e+38"/>
    <Variable VarIndex="142" Expression="vars" Label="vars" Title="[142]" Unit="" Internal="vars[142]" Type="F[]" Min="3.40282347e+38" Max="-3.40282347e+38"/>
    <Variable VarIndex="143" Expression="vars" Label="vars" Title="[143]" Unit="" Internal="vars[143]" Type="F[]" Min="3.40282347e+38" Max="-3.40282347e+38"/>
    <Variable VarIndex="144" Expression="vars" Label="vars" Title="[144]" Unit="" Internal="vars[144]" Type="F[]" Min="3.40282347e+38" Max="-3.40282347e+38"/>
    <Variable VarIndex="145" Expression="vars" Label="vars" Title="[145]" Unit="" Internal="vars[145]" Type="F[]" Min="3.40282347e+38" Max="-3.40282347e+38"/>
    <Variable VarIndex="146" Expression="vars" Label="vars" Title="[146]" Unit="" Internal="vars[146]" Type="F[]" Min="3.40282347e+38" Max="-3.40282347e+38"/>
    <Variable VarIndex="147" Expression="vars" Label="vars" Title="[147]" Unit="" Internal="vars[147]" Type="F[]" Min="3.40282347e+38" Max="-3.40282347e+38"/>
    <Variable VarIndex="148" Expression="vars" Label="vars" Title="[148]" Unit="" Internal="vars[148]" Type="F[]" Min="3.40282347e+38" Max="-3.40282347e+38"/>
    <Variable VarIndex="149" Expression="vars" Label="vars" Title="[149]" Unit="" Internal="vars[149]" Type="F[]" Min="3.40282347e+38" Max="-3.40282347e+38"/>
    <Variable VarIndex="150" Expression="vars" Label="vars" Title="[150]" Unit="" Internal="vars[150]" Type="F[]" Min="3.40282347e+38" Max="-3.40282347e+38"/>
    <Variable VarIndex="151" Expression="vars" Label="vars" Title="[151]" Unit="" Internal="vars[151]" Type="F[]" Min="3.40282347e+38" Max="-3.40282347e+38"/>
    <Variable VarIndex="152" Expression="vars" Label="vars" Title="[152]" Unit="" Internal="vars[152]" Type="F[]" Min="3.40282347e+38" Max="-3.40282347e+38"/>
    <Variable VarIndex="153" Expression="vars" Label="vars" Title="[153]" Unit="" Internal="vars[153]" Type="F[]" Min="3.40282347e+38" Max="-3.40282347e+38"/>
    <Variable VarIndex="154" Expression="vars" Label="vars" Title="[154]" Unit="" Internal="vars[154]" Type="F[]" Min="3.40282347e+38" Max="-3.40282347e+38"/>
    <Variable VarIndex="155" Expression="vars" Label="vars" Title="[155]" Unit="" Internal="vars[155]" Type="F[]" Min="3.40282347e+38" Max="-3.40282347e+38"/>
    <Variable VarIndex="156" Expression="vars" Label="vars" Title="[156]" Unit="" Internal="vars[156]" Type="F[]" Min="3.40282347e+38" Max="-3.40282347e+38"/>
    <Variable VarIndex="157" Expression="vars" Label="vars" Title="[157]" Unit="" Internal="vars[157]" Type="F[]" Min="3.40282347e+38" Max="-3.40282347e+38"/>
    <Variable VarIndex="158" Expression="vars" Label="vars" Title="[158]" Unit="" Internal="vars[158]" Type="F[]" Min="3.40282347e+38" Max="-3.40282347e+38"/>
    <Variable VarIndex="159" Expression="vars" Label="vars" Title="[159]" Unit="" Internal="vars[159]" Type="F[]" Min="3.40282347e+38" Max="-3.40282347e+38"/>
    <Variable VarIndex="160" Expression="vars" Label="vars" Title="[160]" Unit="" Internal="vars[160]" Type="F[]" Min="3.40282347e+38" Max="-3.40282347e+38"/>
    <Variable VarIndex="161" Expression="vars" Label="vars" Title="[161]" Unit="" Internal="vars[161]" Type="F[]" Min="3.40282347e+38" Max="-3.40282347e+38"/>
    <Variable VarIndex="162" Expression="vars" Label="vars" Title="[162]" Unit="" Internal="vars[162]" Type="F[]" Min="3.40282347e+38" Max="-3.40282347e+38"/>
    <Variable VarIndex="163" Expression="vars" Label="vars" Title="[163]" Unit="" Internal="vars[163]" Type="F[]" Min="3.40282347e+38" Max="-3.40282347e+38"/>
    <Variable VarIndex="164" Expression="vars" Label="vars" Title="[164]" Unit="" Internal="vars[164]" Type="F[]" Min="3.40282347e+38" Max="-3.40282347e+38"/>
    <Variable VarIndex="165" Expression="vars" Label="vars" Title="[165]" Unit="" Internal="vars[165]" Type="F[]" Min="3.40282347e+38" Max="-3.40282347e+38"/>
    <Variable VarIndex="166" Expression="vars" Label="vars" Title="[166]" Unit="" Internal="vars[166]" Type="F[]" Min="3.40282347e+38" Max="-3.40282347e+38"/>
    <Variable VarIndex="167" Expression="vars" Label="vars" Title="[167]" Unit="" Internal="vars[167]" Type="F[]" Min="3.40282347e+38" Max="-3.40282347e+38"/>
    <Variable VarIndex="168" Expression="vars" Label="vars" Title="[168]" Unit="" Internal="vars[168]" Type="F[]" Min="3.40282347e+38" Max="-3.40282347e+38"/>
    <Variable VarIndex="169" Expression="vars" Label="vars" Title="[169]" Unit="" Internal="vars[169]" Type="F[]" Min="3.40282347e+38" Max="-3.40282347e+38"/>
    <Variable VarIndex="170" Expression="vars" Label="vars" Title="[170]" Unit="" Internal="vars[170]" Type="F[]" Min="3.40282347e+38" Max="-3.40282347e+38"/>
    <Variable VarIndex="171" Expression="vars" Label="vars" Title="[171]" Unit="" Internal="vars[171]" Type="F[]" Min="3.40282347e+38" Max="-3.40282347e+38"/>
    <Variable VarIndex="172" Expression="vars" Label="vars" Title="[172]" Unit="" Internal="vars[172]" Type="F[]" Min="3.40282347e+38" Max="-3.40282347e+38"/>
    <Variable VarIndex="173" Expression="vars" Label="vars" Title="[173]" Unit="" Internal="vars[173]" Type="F[]" Min="3.40282347e+38" Max="-3.40282347e+38"/>
    <Variable VarIndex="174" Expression="vars" Label="vars" Title="[174]" Unit="" Internal="vars[174]" Type="F[]" Min="3.40282347e+38" Max="-3.40282347e+38"/>
    <Variable VarIndex="175" Expression="vars" Label="vars" Title="[175]" Unit="" Internal="vars[175]" Type="F[]" Min="3.40282347e+38" Max="-3.40282347e+38"/>
    <Variable VarIndex="176" Expression="vars" Label="vars" Title="[176]" Unit="" Internal="vars[176]" Type="F[]" Min="3.40282347e+38" Max="-3.40282347e+38"/>
    <Variable VarIndex="177" Expression="vars" Label="vars" Title="[177]" Unit="" Internal="vars[177]" Type="F[]" Min="3.40282347e+38" Max="-3.40282347e+38"/>
    <Variable VarIndex="178" Expression="vars" Label="vars" Title="[178]" Unit="" Internal="vars[178]" Type="F[]" Min="3.40282347e+38" Max="-3.40282347e+38"/>
    <Variable VarIndex="179" Expression="vars" Label="vars" Title="[179]" Unit="" Internal="vars[179]" Type="F[]" Min="3.40282347e+38" Max="-3.40282347e+38"/>
    <Variable VarIndex="180" Expression="vars" Label="vars" Title="[180]" Unit="" Internal="vars[180]" Type="F[]" Min="3.40282347e+38" Max="-3.40282347e+38"/>
    <Variable VarIndex="181" Expression="vars" Label="vars" Title="[181]" Unit="" Internal="vars[181]" Type="F[]" Min="3.40282347e+38" Max="-3.40282347e+38"/>
    <Variable VarIndex="182" Expression="vars" Label="vars" Title="[182]" Unit="" Internal="vars[182]" Type="F[]" Min="3.40282347e+38" Max="-3.40282347e+38"/>
    <Variable VarIndex="183" Expression="vars" Label="vars" Title="[183]" Unit="" Internal="vars[183]" Type="F[]" Min="3.40282347e+38" Max="-3.40282347e+38"/>
    <Variable VarIndex="184" Expression="vars" Label="vars" Title="[184]" Unit="" Internal="vars[184]" Type="F[]" Min="3.40282347e+38" Max="-3.40282347e+38"/>
    <Variable VarIndex="185" Expression="vars" Label="vars" Title="[185]" Unit="" Internal="vars[185]" Type="F[]" Min="3.40282347e+38" Max="-3.40282347e+38"/>
    <Variable VarIndex="186" Expression="vars" Label="vars" Title="[186]" Unit="" Internal="vars[186]" Type="F[]" Min="3.40282347e+38" Max="-3.40282347e+38"/>
    <Variable VarIndex="187" Expression="vars" Label="vars" Title="[187]" Unit="" Internal="vars[187]" Type="F[]" Min="3.40282347e+38" Max="-3.40282347e+38"/>
    <Variable VarIndex="188" Expression="vars" Label="vars" Title="[188]" Unit="" Internal="vars[188]" Type="F[]" Min="3.40282347e+38" Max="-3.40282347e+38"/>
    <Variable VarIndex="189" Expression="vars" Label="vars" Title="[189]" Unit="" Internal="vars[189]" Type="F[]" Min="3.40282347e+38" Max="-3.40282347e+38"/>
    <Variable VarIndex="190" Expression="vars" Label="vars" Title="[190]" Unit="" Internal="vars[190]" Type="F[]" Min="3.40282347e+38" Max="-3.40282347e+38"/>
    <Variable VarIndex="191" Expression="vars" Label="vars" Title="[191]" Unit="" Internal="vars[191]" Type="F[]" Min="3.40282347e+38" Max="-3.40282347e+38"/>
    <Variable VarIndex="192" Expression="vars" Label="vars" Title="[192]" Unit="" Internal="vars[192]" Type="F[]" Min="3.40282347e+38" Max="-3.40282347e+38"/>
    <Variable VarIndex="193" Expression="vars" Label="vars" Title="[193]" Unit="" Internal="vars[193]" Type="F[]" Min="3.40282347e+38" Max="-3.40282347e+38"/>
    <Variable VarIndex="194" Expression="vars" Label="vars" Title="[194]" Unit="" Internal="vars[194]" Type="F[]" Min="3.40282347e+38" Max="-3.40282347e+38"/>
    <Variable VarIndex="195" Expression="vars" Label="vars" Title="[195]" Unit="" Internal="vars[195]" Type="F[]" Min="3.40282347e+38" Max="-3.40282347e+38"/>
    <Variable VarIndex="196" Expression="vars" Label="vars" Title="[196]" Unit="" Internal="vars[196]" Type="F[]" Min="3.40282347e+38" Max="-3.40282347e+38"/>
    <Variable VarIndex="197" Expression="vars" Label="vars" Title="[197]" Unit="" Internal="vars[197]" Type="F[]" Min="3.40282347e+38" Max="-3.40282347e+38"/>
    <Variable VarIndex="198" Expression="vars" Label="vars" Title="[198]" Unit="" Internal="vars[198]" Type="F[]" Min="3.40282347e+38" Max="-3.40282347e+38"/>
    <Variable VarIndex="199" Expression="vars" Label="vars" Title="[199]" Unit="" Internal="vars[199]" Type="F[]" Min="3.40282347e+38" Max="-3.40282347e+38"/>
    <Variable VarIndex="200" Expression="vars" Label="vars" Title="[200]" Unit="" Internal="vars[200]" Type="F[]" Min="3.40282347e+38" Max="-3.40282347e+38"/>
    <Variable VarIndex="201" Expression="vars" Label="vars" Title="[201]" Unit="" Internal="vars[201]" Type="F[]" Min="3.40282347e+38" Max="-3.40282347e+38"/>
    <Variable VarIndex="202" Expression="vars" Label="vars" Title="[202]" Unit="" Internal="vars[202]" Type="F[]" Min="3.40282347e+38" Max="-3.40282347e+38"/>
    <Variable VarIndex="203" Expression="vars" Label="vars" Title="[203]" Unit="" Internal="vars[203]" Type="F[]" Min="3.40282347e+38" Max="-3.40282347e+38"/>
    <Variable VarIndex="204" Expression="vars" Label="vars" Title="[204]" Unit="" Internal="vars[204]" Type="F[]" Min="3.40282347e+38" Max="-3.40282347e+38"/>
    <Variable VarIndex="205" Expression="vars" Label="vars" Title="[205]" Unit="" Internal="vars[205]" Type="F[]" Min="3.40282347e+38" Max="-3.40282347e+38"/>
    <Variable VarIndex="206" Expression="vars" Label="vars" Title="[206]" Unit="" Internal="vars[206]" Type="F[]" Min="3.40282347e+38" Max="-3.40282347e+38"/>
    <Variable VarIndex="207" Expression="vars" Label="vars" Title="[207]" Unit="" Internal="vars[207]" Type="F[]" Min="3.40282347e+38" Max="-3.40282347e+38"/>
    <Variable VarIndex="208" Expression="vars" Label="vars" Title="[208]" Unit="" Internal="vars[208]" Type="F[]" Min="3.40282347e+38" Max="-3.40282347e+38"/>
    <Variable VarIndex="209" Expression="vars" Label="vars" Title="[209]" Unit="" Internal="vars[209]" Type="F[]" Min="3.40282347e+38" Max="-3.40282347e+38"/>
    <Variable VarIndex="210" Expression="vars" Label="vars" Title="[210]" Unit="" Internal="vars[210]" Type="F[]" Min="3.40282347e+38" Max="-3.40282347e+38"/>
    <Variable VarIndex="211" Expression="vars" Label="vars" Title="[211]" Unit="" Internal="vars[211]" Type="F[]" Min="3.40282347e+38" Max="-3.40282347e+38"/>
    <Variable VarIndex="212" Expression="vars" Label="vars" Title="[212]" Unit="" Internal="vars[212]" Type="F[]" Min="3.40282347e+38" Max="-3.40282347e+38"/>
    <Variable VarIndex="213" Expression="vars" Label="vars" Title="[213]" Unit="" Internal="vars[213]" Type="F[]" Min="3.40282347e+38" Max="-3.40282347e+38"/>
    <Variable VarIndex="214" Expression="vars" Label="vars" Title="[214]" Unit="" Internal="vars[214]" Type="F[]" Min="3.40282347e+38" Max="-3.40282347e+38"/>
    <Variable VarIndex="215" Expression="vars" Label="vars" Title="[215]" Unit="" Internal="vars[215]" Type="F[]" Min="3.40282347e+38" Max="-3.40282347e+38"/>
    <Variable VarIndex="216" Expression="vars" Label="vars" Title="[216]" Unit="" Internal="vars[216]" Type="F[]" Min="3.40282347e+38" Max="-3.40282347e+38"/>
    <Variable VarIndex="217" Expression="vars" Label="vars" Title="[217]" Unit="" Internal="vars[217]" Type="F[]" Min="3.40282347e+38" Max="-3.40282347e+38"/>
    <Variable VarIndex="218" Expression="vars" Label="vars" Title="[218]" Unit="" Internal="vars[218]" Type="F[]" Min="3.40282347e+38" Max="-3.40282347e+38"/>
    <Variable VarIndex="219" Expression="vars" Label="vars" Title="[219]" Unit="" Internal="vars[219]" Type="F[]" Min="3.40282347e+38" Max="-3.40282347e+38"/>
    <Variable VarIndex="220" Expression="vars" Label="vars" Title="[220]" Unit="" Internal="vars[220]" Type="F[]" Min="3.40282347e+38" Max="-3.40282347e+38"/>
    <Variable VarIndex="221" Expression="vars" Label="vars" Title="[221]" Unit="" Internal="vars[221]" Type="F[]" Min="3.40282347e+38" Max="-3.40282347e+38"/>
    <Variable VarIndex="222" Expression="vars" Label="vars" Title="[222]" Unit="" Internal="vars[222]" Type="F[]" Min="3.40282347e+38" Max="-3.40282347e+38"/>
    <Variable VarIndex="223" Expression="vars" Label="vars" Title="[223]" Unit="" Internal="vars[223]" Type="F[]" Min="3.40282347e+38" Max="-3.40282347e+38"/>
    <Variable VarIndex="224" Expression="vars" Label="vars" Title="[224]" Unit="" Internal="vars[224]" Type="F[]" Min="3.40282347e+38" Max="-3.40282347e+38"/>
    <Variable VarIndex="225" Expression="vars" Label="vars" Title="[225]" Unit="" Internal="vars[225]" Type="F[]" Min="3.40282347e+38" Max="-3.40282347e+38"/>
    <Variable VarIndex="226" Expression="vars" Label="vars" Title="[226]" Unit="" Internal="vars[226]" Type="F[]" Min="3.40282347e+38" Max="-3.40282347e+38"/>
    <Variable VarIndex="227" Expression="vars" Label="vars" Title="[227]" Unit="" Internal="vars[227]" Type="F[]" Min="3.40282347e+38" Max="-3.40282347e+38"/>
    <Variable VarIndex="228" Expression="vars" Label="vars" Title="[228]" Unit="" Internal="vars[228]" Type="F[]" Min="3.40282347e+38" Max="-3.40282347e+38"/>
    <Variable VarIndex="229" Expression="vars" Label="vars" Title="[229]" Unit="" Internal="vars[229]" Type="F[]" Min="3.40282347e+38" Max="-3.40282347e+38"/>
    <Variable VarIndex="230" Expression="vars" Label="vars" Title="[230]" Unit="" Internal="vars[230]" Type="F[]" Min="3.40282347e+38" Max="-3.40282347e+38"/>
    <Variable VarIndex="231" Expression="vars" Label="vars" Title="[231]" Unit="" Internal="vars[231]" Type="F[]" Min="3.40282347e+38" Max="-3.40282347e+38"/>
    <Variable VarIndex="232" Expression="vars" Label="vars" Title="[232]" Unit="" Internal="vars[232]" Type="F[]" Min="3.40282347e+38" Max="-3.40282347e+38"/>
    <Variable VarIndex="233" Expression="vars" Label="vars" Title="[233]" Unit="" Internal="vars[233]" Type="F[]" Min="3.40282347e+38" Max="-3.40282347e+38"/>
    <Variable VarIndex="234" Expression="vars" Label="vars" Title="[234]" Unit="" Internal="vars[234]" Type="F[]" Min="3.40282347e+38" Max="-3.40282347e+38"/>
    <Variable VarIndex="235" Expression="vars" Label="vars" Title="[235]" Unit="" Internal="vars[235]" Type="F[]" Min="3.40282347e+38" Max="-3.40282347e+38"/>
    <Variable VarIndex="236" Expression="vars" Label="vars" Title="[236]" Unit="" Internal="vars[236]" Type="F[]" Min="3.40282347e+38" Max="-3.40282347e+38"/>
    <Variable VarIndex="237" Expression="vars" Label="vars" Title="[237]" Unit="" Internal="vars[237]" Type="F[]" Min="3.40282347e+38" Max="-3.40282347e+38"/>
    <Variable VarIndex="238" Expression="vars" Label="vars" Title="[238]" Unit="" Internal="vars[238]" Type="F[]" Min="3.40282347e+38" Max="-3.40282347e+38"/>
    <Variable VarIndex="239" Expression="vars" Label="vars" Title="[239]" Unit="" Internal="vars[239]" Type="F[]" Min="3.40282347e+38" Max="-3.40282347e+38"/>
    <Variable VarIndex="240" Expression="vars" Label="vars" Title="[240]" Unit="" Internal="vars[240]" Type="F[]" Min="3.40282347e+38" Max="-3.40282347e+38"/>
    <Variable VarIndex="241" Expression="vars" Label="vars" Title="[241]" Unit="" Internal="vars[241]" Type="F[]" Min="3.40282347e+38" Max="-3.40282347e+38"/>
    <Variable VarIndex="242" Expression="vars" Label="vars" Title="[242]" Unit="" Internal="vars[242]" Type="F[]" Min="3.40282347e+38" Max="-3.40282347e+38"/>
    <Variable VarIndex="243" Expression="vars" Label="vars" Title="[243]" Unit="" Internal="vars[243]" Type="F[]" Min="3.40282347e+38" Max="-3.40282347e+38"/>
    <Variable VarIndex="244" Expression="vars" Label="vars" Title="[244]" Unit="" Internal="vars[244]" Type="F[]" Min="3.40282347e+38" Max="-3.40282347e+38"/>
    <Variable VarIndex="245" Expression="vars" Label="vars" Title="[245]" Unit="" Internal="vars[245]" Type="F[]" Min="3.40282347e+38" Max="-3.40282347e+38"/>
    <Variable VarIndex="246" Expression="vars" Label="vars" Title="[246]" Unit="" Internal="vars[246]" Type="F[]" Min="3.40282347e+38" Max="-3.40282347e+38"/>
    <Variable VarIndex="247" Expression="vars" Label="vars" Title="[247]" Unit="" Internal="vars[247]" Type="F[]" Min="3.40282347e+38" Max="-3.40282347e+38"/>
    <Variable VarIndex="248" Expression="vars" Label="vars" Title="[248]" Unit="" Internal="vars[248]" Type="F[]" Min="3.40282347e+38" Max="-3.40282347e+38"/>
    <Variable VarIndex="249" Expression="vars" Label="vars" Title="[249]" Unit="" Internal="vars[249]" Type="F[]" Min="3.40282347e+38" Max="-3.40282347e+38"/>
    <Variable VarIndex="250" Expression="vars" Label="vars" Title="[250]" Unit="" Internal="vars[250]" Type="F[]" Min="3.40282347e+38" Max="-3.40282347e+38"/>
    <Variable VarIndex="251" Expression="vars" Label="vars" Title="[251]" Unit="" Internal="vars[251]" Type="F[]" Min="3.40282347e+38" Max="-3.40282347e+38"/>
    <Variable VarIndex="252" Expression="vars" Label="vars" Title="[252]" Unit="" Internal="vars[252]" Type="F[]" Min="3.40282347e+38" Max="-3.40282347e+38"/>
    <Variable VarIndex="253" Expression="vars" Label="vars" Title="[253]" Unit="" Internal="vars[253]" Type="F[]" Min="3.40282347e+38" Max="-3.40282347e+38"/>
    <Variable VarIndex="254" Expression="vars" Label="vars" Title="[254]" Unit="" Internal="vars[254]" Type="F[]" Min="3.40282347e+38" Max="-3.40282347e+38"/>
    <Variable VarIndex="255" Expression="vars" Label="vars" Title="[255]" Unit="" Internal="vars[255]" Type="F[]" Min="3.40282347e+38" Max="-3.40282347e+38"/>
  </Variables>
  <Spectators NSpec="0"/>
  <Classes NClass="2">
    <Class Name="Signal" Index="0"/>
    <Class Name="Background" Index="1"/>
  </Classes>
  <Transformations NTransformations="0"/>
  <MVAPdfs/>
  <Weights NTrees="400" AnalysisType="0">
    <BinaryTree type="DecisionTree" boostWeight="7.4468371885374404e-02" itree="0">
      <Node pos="s" depth="0" NCoef="0" IVar="233" Cut="7.2839767456054688e+01" cType="0" res="-9.9000000000000000e+01" rms="0.0000000000000000e+00" purity="5.0074332952499390e-01" nType="0">
        <Node pos="l" depth="1" NCoef="0" IVar="-1" Cut="0.0000000000000000e+00" cType="1" res="-9.9000000000000000e+01" rms="0.0000000000000000e+00" purity="7.4436092376708984e-01" nType="1"/>
        <Node pos="r" depth="1" NCoef="0" IVar="72" Cut="4.4309200286865234e+01" cType="0" res="-9.9000000000000000e+01" rms="0.0000000000000000e+00" purity="4.9244171380996704e-01" nType="0">
          <Node pos="l" depth="2" NCoef="0" IVar="-1" Cut="0.0000000000000000e+00" cType="1" res="-9.9000000000000000e+01" rms="0.0000000000000000e+00" purity="5.1409351825714111e-01" nType="1"/>
          <Node pos="r" depth="2" NCoef="0" IVar="-1" Cut="0.0000000000000000e+00" cType="1" res="-9.9000000000000000e+01" rms="0.0000000000000000e+00" purity="4.0588989853858948e-01" nType="-1"/>
        </Node>
      </Node>
    </BinaryTree>
    <BinaryTree type="DecisionTree" boostWeight="1.2383831506092079e-01" itree="1">
      <Node pos="s" depth="0" NCoef="0" IVar="139" Cut="3.6980598449707031e+01" cType="1" res="-9.9000000000000000e+01" rms="0.0000000000000000e+00" purity="5.0209921598434448e-01" nType="0">
        <Node pos="l" depth="1" NCoef="0" IVar="-1" Cut="8.2736946105957031e+01" cType="0" res="-9.9000000000000000e+01" rms="0.0000000000000000e+00" purity="6.1189222335815430e-01" nType="1"/>
        <Node pos="r" depth="1" NCoef="0" IVar="112" Cut="1.7261436462402344e+01" cType="1" res="-9.9000000000000000e+01" rms="0.0000000000000000e+00" purity="4.8706716299057007e-01" nType="0">
          <Node pos="l" depth="2" NCoef="0" IVar="-1" Cut="0.0000000000000000e+00" cType="1" res="-9.9000000000000000e+01" rms="0.0000000000000000e+00" purity="5.5175870656967163e-01" nType="1"/>
          <Node pos="r" depth="2" NCoef="0" IVar="-1" Cut="0.0000000000000000e+00" cType="1" res="-9.9000000000000000e+01" rms="0.0000000000000000e+00" purity="4.4327622652053833e-01" nType="-1"/>
        </Node>
      </Node>
    </BinaryTree>
    <BinaryTree type="DecisionTree" boostWeight="1.0701457650273928e-01" itree="2">
      <Node pos="s" depth="0" NCoef="0" IVar="142" Cut="9.6274671554565430e+00" cType="1" res="-9.9000000000000000e+01" rms="0.0000000000000000e+00" purity="4.9379098415374756e-01" nType="0">
        <Node pos="l" depth="1" NCoef="0" IVar="104" Cut="6.4820854187011719e+01" cType="0" res="-9.9000000000000000e+01" rms="0.0000000000000000e+00" purity="6.3091915845870972e-01" nType="0">
          <Node pos="l" depth="2" NCoef="0" IVar="-1" Cut="0.0000000000000000e+00" cType="1" res="-9.9000000000000000e+01" rms="0.0000000000000000e+00" purity="7.5394636392593384e-01" nType="1"/>
          <Node pos="r" depth="2" NCoef="0" IVar="-1" Cut="0.0000000000000000e+00" cType="1" res="-9.9000000000000000e+01" rms="0.0000000000000000e+00" purity="4.8229110240936279e-01" nType="-1"/>
        </Node>
        <Node pos="r" depth="1" NCoef="0" IVar="176" Cut="1.1260653495788574e+01" cType="1" res="-9.9000000000000000e+01" rms="0.0000000000000000e+00" purity="4.8275327682495117e-01" nType="0">
          <Node pos="l" depth="2" NCoef="0" IVar="-1" Cut="0.0000000000000000e+00" cType="1" res="-9.9000000000000000e+01" rms="0.0000000000000000e+00" purity="5.4486447572708130e-01" nType="1"/>
          <Node pos="r" depth="2" NCoef="0" IVar="-1" Cut="0.0000000000000000e+00" cType="1" res="-9.9000000000000000e+01" rms="0.0000000000000000e+00" purity="4.5381474494934082e-01" nType="-1"/>
        </Node>
      </Node>
    </BinaryTree>
    <BinaryTree type="DecisionTree" boostWeight="1.1796663860921346e-01" itree="3">
      <Node pos="s" depth="0" NCoef="0" IVar="142" Cut="1.0326716423034668e+01" cType="1" res="-9.9000000000000000e+01" rms="0.0000000000000000e+00" purity="4.9278748035430908e-01" nType="0">
        <Node pos="l" depth="1" NCoef="0" IVar="-1" Cut="7.7814239501953125e+01" cType="1" res="-9.9000000000000000e+01" rms="0.0000000000000000e+00" purity="6.5419358015060425e-01" nType="1"/>
        <Node pos="r" depth="1" NCoef="0" IVar="32" Cut="1.3612772941589355e+01" cType="1" res="-9.9000000000000000e+01" rms="0.0000000000000000e+00" purity="4.7825881838798523e-01" nType="0">
          <Node pos="l" depth="2" NCoef="0" IVar="-1" Cut="0.0000000000000000e+00" cType="1" res="-9.9000000000000000e+01" rms="0.0000000000000000e+00" purity="5.2465450763702393e-01" nType="1"/>
          <Node pos="r" depth="2" NCoef="0" IVar="-1" Cut="0.0000000000000000e+00" cType="1" res="-9.9000000000000000e+01" rms="0.0000000000000000e+00" purity="4.1536965966224670e-01" nType="-1"/>
        </Node>
      </Node>
    </BinaryTree>
    <BinaryTree type="DecisionTree" boostWeight="5.5893859575365731e-02" itree="4">
      <Node pos="s" depth="0" NCoef="0" IVar="127" Cut="7.8646612167358398e+00" cType="1" res="-9.9000000000000000e+01" rms="0.0000000000000000e+00" purity="5.0559633970260620e-01" nType="0">
        <Node pos="l" depth="1" NCoef="0" IVar="115" Cut="8.3302246093750000e+01" cType="1" res="-9.9000000000000000e+01" rms="0.0000000000000000e+00" purity="6.2299853563308716e-01" nType="0">
          <Node pos="l" depth="2" NCoef="0" IVar="-1" Cut="0.0000000000000000e+00" cType="1" res="-9.9000000000000000e+01" rms="0.0000000000000000e+00" purity="6.7834872007369995e-01" nType="1"/>
          <Node pos="r" depth="2" NCoef="0" IVar="-1" Cut="0.0000000000000000e+00" cType="1" res="-9.9000000000000000e+01" rms="0.0000000000000000e+00" purity="4.8075464367866516e-01" nType="-1"/>
        </Node>
        <Node pos="r" depth="1" NCoef="0" IVar="43" Cut="1.2491232872009277e+01" cType="0" res="-9.9000000000000000e+01" rms="0.0000000000000000e+00" purity="4.8863017559051514e-01" nType="0">
          <Node pos="l" depth="2" NCoef="0" IVar="-1" Cut="0.0000000000000000e+00" cType="1" res="-9.9000000000000000e+01" rms="0.0000000000000000e+00" purity="5.0067394971847534e-01" nType="1"/>
          <Node pos="r" depth="2" NCoef="0" IVar="-1" Cut="0.0000000000000000e+00" cType="1" res="-9.9000000000000000e+01" rms="0.0000000000000000e+00" purity="3.3565765619277954e-01" nType="-1"/>
        </Node>
      </Node>
    </BinaryTree>
    <BinaryTree type="DecisionTree" boostWeight="1.0347724229120081e-01" itree="5">
      <Node pos="s" depth="0" NCoef="0" IVar="43" Cut="1.3292929649353027e+01" cType="0" res="-9.9000000000000000e+01" rms="0.0000000000000000e+00" purity="4.7723644971847534e-01" nType="0">
        <Node pos="l" depth="1" NCoef="0" IVar="246" Cut="1.7051446914672852e+01" cType="0" res="-9.9000000000000000e+01" rms="0.0000000000000000e+00" purity="4.9037340283393860e-01" nType="0">
          <Node pos="l" depth="2" NCoef="0" IVar="-1" Cut="0.0000000000000000e+00" cType="1" res="-9.9000000000000000e+01" rms="0.0000000000000000e+00" purity="5.2544116973876953e-01" nType="1"/>
          <Node pos="r" depth="2" NCoef="0" IVar="-1" Cut="0.0000000000000000e+00" cType="1" res="-9.9000000000000000e+01" rms="0.0000000000000000e+00" purity="4.2961493134498596e-01" nType="-1"/>
        </Node>
        <Node pos="r" depth="1" NCoef="0" IVar="-1" Cut="2.1064817428588867e+01" cType="1" res="-9.9000000000000000e+01" rms="0.0000000000000000e+00" purity="3.6825746297836304e-01" nType="-1"/>
      </Node>
    </BinaryTree>
    <BinaryTree type="DecisionTree" boostWeight="1.2003513702535658e-01" itree="6">
      <Node pos="s" depth="0" NCoef="0" IVar="6" Cut="3.6614170074462891e+01" cType="0" res="-9.9000000000000000e+01" rms="0.0000000000000000e+00" purity="4.8189264535903931e-01" nType="0">
        <Node pos="l" depth="1" NCoef="0" IVar="244" Cut="9.5019359588623047e+00" cType="0" res="-9.9000000000000000e+01" rms="0.0000000000000000e+00" purity="5.6029134988784790e-01" nType="0">
          <Node pos="l" depth="2" NCoef="0" IVar="-1" Cut="0.0000000000000000e+00" cType="1" res="-9.9000000000000000e+01" rms="0.0000000000000000e+00" purity="6.4839231967926025e-01" nType="1"/>
          <Node pos="r" depth="2" NCoef="0" IVar="-1" Cut="0.0000000000000000e+00" cType="1" res="-9.9000000000000000e+01" rms="0.0000000000000000e+00" purity="4.5874544978141785e-01" nType="-1"/>
        </Node>
        <Node pos="r" depth="1" NCoef="0" IVar="-1" Cut="2.7380241394042969e+01" cType="0" res="-9.9000000000000000e+01" rms="0.0000000000000000e+00" purity="4.5407044887542725e-01" nType="-1"/>
      </Node>
    </BinaryTree>
    <BinaryTree type="DecisionTree" boostWeight="4.3191668088688677e-02" itree="7">
      <Node pos="s" depth="0" NCoef="0" IVar="175" Cut="6.6754150390625000e+00" cType="1" res="-9.9000000000000000e+01" rms="0.0000000000000000e+00" purity="5.0682026147842407e-01" nType="0">
        <Node pos="l" depth="1" NCoef="0" IVar="-1" Cut="4.3031890869140625e+01" cType="1" res="-9.9000000000000000e+01" rms="0.0000000000000000e+00" purity="6.1385941505432129e-01" nType="1"/>
        <Node pos="r" depth="1" NCoef="0" IVar="-1" Cut="4.7402024269104004e+00" cType="0" res="-9.9000000000000000e+01" rms="0.0000000000000000e+00" purity="4.9156713485717773e-01" nType="-1"/>
      </Node>
    </BinaryTree>
    <BinaryTree type="DecisionTree" boostWeight="1.2966453342963863e-01" itree="8">
      <Node pos="s" depth="0" NCoef="0" IVar="127" Cut="9.9807004928588867e+00" cType="1" res="-9.9000000000000000e+01" rms="0.0000000000000000e+00" purity="4.9154680967330933e-01" nType="0">
        <Node pos="l" depth="1" NCoef="0" IVar="142" Cut="1.5604890823364258e+01" cType="1" res="-9.9000000000000000e+01" rms="0.0000000000000000e+00" purity="6.0578906536102295e-01" nType="0">
          <Node pos="l" depth="2" NCoef="0" IVar="-1" Cut="0.0000000000000000e+00" cType="1" res="-9.9000000000000000e+01" rms="0.0000000000000000e+00" purity="7.0427393913269043e-01" nType="1"/>
          <Node pos="r" depth="2" NCoef="0" IVar="-1" Cut="0.0000000000000000e+00" cType="1" res="-9.9000000000000000e+01" rms="0.0000000000000000e+00" purity="4.9385759234428406e-01" nType="-1"/>
        </Node>
        <Node pos="r" depth="1" NCoef="0" IVar="144" Cut="1.2032932281494141e+01" cType="1" res="-9.9000000000000000e+01" rms="0.0000000000000000e+00" purity="4.7010856866836548e-01" nType="0">
          <Node pos="l" depth="2" NCoef="0" IVar="-1" Cut="0.0000000000000000e+00" cType="1" res="-9.9000000000000000e+01" rms="0.0000000000000000e+00" purity="5.4320704936981201e-01" nType="1"/>
          <Node pos="r" depth="2" NCoef="0" IVar="-1" Cut="0.0000000000000000e+00" cType="1" res="-9.9000000000000000e+01" rms="0.0000000000000000e+00" purity="4.3908500671386719e-01" nType="-1"/>
        </Node>
      </Node>
    </BinaryTree>
    <BinaryTree type="DecisionTree" boostWeight="1.2922244892416615e-01" itree="9">
      <Node pos="s" depth="0" NCoef="0" IVar="6" Cut="1.8873722076416016e+01" cType="0" res="-9.9000000000000000e+01" rms="0.0000000000000000e+00" purity="5.0898855924606323e-01" nType="0">
        <Node pos="l" depth="1" NCoef="0" IVar="230" Cut="2.5348381042480469e+01" cType="0" res="-9.9000000000000000e+01" rms="0.0000000000000000e+00" purity="5.4801279306411743e-01" nType="0">
          <Node pos="l" depth="2" NCoef="0" IVar="-1" Cut="0.0000000000000000e+00" cType="1" res="-9.9000000000000000e+01" rms="0.0000000000000000e+00" purity="6.3184791803359985e-01" nType="1"/>
          <Node pos="r" depth="2" NCoef="0" IVar="-1" Cut="0.0000000000000000e+00" cType="1" res="-9.9000000000000000e+01" rms="0.0000000000000000e+00" purity="4.9014788866043091e-01" nType="-1"/>
        </Node>
        <Node pos="r" depth="1" NCoef="0" IVar="246" Cut="4.0323867797851562e+01" cType="0" res="-9.9000000000000000e+01" rms="0.0000000000000000e+00" purity="4.4458860158920288e-01" nType="0">
          <Node pos="l" depth="2" NCoef="0" IVar="-1" Cut="0.0000000000000000e+00" cType="1" res="-9.9000000000000000e+01" rms="0.0000000000000000e+00" purity="5.1734369993209839e-01" nType="1"/>
          <Node pos="r" depth="2" NCoef="0" IVar="-1" Cut="0.0000000000000000e+00" cType="1" res="-9.9000000000000000e+01" rms="0.0000000000000000e+00" purity="3.7929388880729675e-01" nType="-1"/>
        </Node>
      </Node>
    </BinaryTree>
    <BinaryTree type="DecisionTree" boostWeight="7.3267402808276080e-02" itree="10">
      <Node pos="s" depth="0" NCoef="0" IVar="111" Cut="4.6856101989746094e+01" cType="1" res="-9.9000000000000000e+01" rms="0.0000000000000000e+00" purity="5.0915980339050293e-01" nType="0">
        <Node pos="l" depth="1" NCoef="0" IVar="-1" Cut="1.2272931098937988e+01" cType="1" res="-9.9000000000000000e+01" rms="0.0000000000000000e+00" purity="5.2555173635482788e-01" nType="1"/>
        <Node pos="r" depth="1" NCoef="0" IVar="192" Cut="5.4402475357055664e+00" cType="1" res="-9.9000000000000000e+01" rms="0.0000000000000000e+00" purity="3.8771119713783264e-01" nType="0">
          <Node pos="l" depth="2" NCoef="0" IVar="-1" Cut="0.0000000000000000e+00" cType="1" res="-9.9000000000000000e+01" rms="0.0000000000000000e+00" purity="5.0586330890655518e-01" nType="1"/>
          <Node pos="r" depth="2" NCoef="0" IVar="-1" Cut="0.0000000000000000e+00" cType="1" res="-9.9000000000000000e+01" rms="0.0000000000000000e+00" purity="2.6801663637161255e-01" nType="-1"/>
        </Node>
      </Node>
    </BinaryTree>
    <BinaryTree type="DecisionTree" boostWeight="1.0292719470493297e-01" itree="11">
      <Node pos="s" depth="0" NCoef="0" IVar="158" Cut="1.3086497306823730e+01" cType="1" res="-9.9000000000000000e+01" rms="0.0000000000000000e+00" purity="5.0591522455215454e-01" nType="0">
        <Node pos="l" depth="1" NCoef="0" IVar="-1" Cut="7.3044158935546875e+01" cType="1" res="-9.9000000000000000e+01" rms="0.0000000000000000e+00" purity="6.2097030878067017e-01" nType="1"/>
        <Node pos="r" depth="1" NCoef="0" IVar="26" Cut="2.0944660186767578e+01" cType="0" res="-9.9000000000000000e+01" rms="0.0000000000000000e+00" purity="4.8718911409378052e-01" nType="0">
          <Node pos="l" depth="2" NCoef="0" IVar="-1" Cut="0.0000000000000000e+00" cType="1" res="-9.9000000000000000e+01" rms="0.0000000000000000e+00" purity="5.2022647857666016e-01" nType="1"/>
          <Node pos="r" depth="2" NCoef="0" IVar="-1" Cut="0.0000000000000000e+00" cType="1" res="-9.9000000000000000e+01" rms="0.0000000000000000e+00" purity="4.1991746425628662e-01" nType="-1"/>
        </Node>
      </Node>
    </BinaryTree>
    <BinaryTree type="DecisionTree" boostWeight="9.9789543497598471e-02" itree="12">
      <Node pos="s" depth="0" NCoef="0" IVar="4" Cut="6.0487074851989746e+00" cType="0" res="-9.9000000000000000e+01" rms="0.0000000000000000e+00" purity="4.8937836289405823e-01" nType="0">
        <Node pos="l" depth="1" NCoef="0" IVar="248" Cut="1.0374380111694336e+01" cType="0" res="-9.9000000000000000e+01" rms="0.0000000000000000e+00" purity="5.0740820169448853e-01" nType="0">
          <Node pos="l" depth="2" NCoef="0" IVar="-1" Cut="0.0000000000000000e+00" cType="1" res="-9.9000000000000000e+01" rms="0.0000000000000000e+00" purity="5.2664858102798462e-01" nType="1"/>
          <Node pos="r" depth="2" NCoef="0" IVar="-1" Cut="0.0000000000000000e+00" cType="1" res="-9.9000000000000000e+01" rms="0.0000000000000000e+00" purity="4.0765672922134399e-01" nType="-1"/>
        </Node>
        <Node pos="r" depth="1" NCoef="0" IVar="-1" Cut="7.8726811408996582e+00" cType="0" res="-9.9000000000000000e+01" rms="0.0000000000000000e+00" purity="3.6281266808509827e-01" nType="-1"/>
      </Node>
    </BinaryTree>
    <BinaryTree type="DecisionTree" boostWeight="1.2563453503124605e-01" itree="13">
      <Node pos="s" depth="0" NCoef="0" IVar="127" Cut="1.7751977920532227e+01" cType="1" res="-9.9000000000000000e+01" rms="0.0000000000000000e+00" purity="4.8952943086624146e-01" nType="0">
        <Node pos="l" depth="1" NCoef="0" IVar="233" Cut="1.2796879768371582e+01" cType="0" res="-9.9000000000000000e+01" rms="0.0000000000000000e+00" purity="5.5459362268447876e-01" nType="0">
          <Node pos="l" depth="2" NCoef="0" IVar="-1" Cut="0.0000000000000000e+00" cType="1" res="-9.9000000000000000e+01" rms="0.0000000000000000e+00" purity="5.8191245794296265e-01" nType="1"/>
          <Node pos="r" depth="2" NCoef="0" IVar="-1" Cut="0.0000000000000000e+00" cType="1" res="-9.9000000000000000e+01" rms="0.0000000000000000e+00" purity="3.7766867876052856e-01" nType="-1"/>
        </Node>
        <Node pos="r" depth="1" NCoef="0" IVar="-1" Cut="2.9758232116699219e+01" cType="1" res="-9.9000000000000000e+01" rms="0.0000000000000000e+00" purity="4.5187929272651672e-01" nType="-1"/>
      </Node>
    </BinaryTree>
    <BinaryTree type="DecisionTree" boostWeight="1.2299027266949199e-01" itree="14">
      <Node pos="s" depth="0" NCoef="0" IVar="26" Cut="1.6349929809570312e+01" cType="0" res="-9.9000000000000000e+01" rms="0.0000000000000000e+00" purity="4.9572119116783142e-01" nType="0">
        <Node pos="l" depth="1" NCoef="0" IVar="248" Cut="2.7611358642578125e+01" cType="0" res="-9.9000000000000000e+01" rms="0.0000000000000000e+00" purity="5.2468454837799072e-01" nType="0">
          <Node pos="l" depth="2" NCoef="0" IVar="-1" Cut="0.0000000000000000e+00" cType="1" res="-9.9000000000000000e+01" rms="0.0000000000000000e+00" purity="6.0645508766174316e-01" nType="1"/>
          <Node pos="r" depth="2" NCoef="0" IVar="-1" Cut="0.0000000000000000e+00" cType="1" res="-9.9000000000000000e+01" rms="0.0000000000000000e+00" purity="4.8183381557464600e-01" nType="-1"/>
        </Node>
        <Node pos="r" depth="1" NCoef="0" IVar="-1" Cut="3.9308853149414062e+01" cType="0" res="-9.9000000000000000e+01" rms="0.0000000000000000e+00" purity="3.9460507035255432e-01" nType="-1"/>
      </Node>
    </BinaryTree>
    <BinaryTree type="DecisionTree" boostWeight="1.0099115046325627e-01" itree="15">
      <Node pos="s" depth="0" NCoef="0" IVar="162" Cut="1.2461061477661133e+01" cType="1" res="-9.9000000000000000e+01" rms="0.0000000000000000e+00" purity="5.1963770389556885e-01" nType="0">
        <Node pos="l" depth="1" NCoef="0" IVar="-1" Cut="6.7256784439086914e+00" cType="0" res="-9.9000000000000000e+01" rms="0.0000000000000000e+00" purity="6.8394076824188232e-01" nType="1"/>
        <Node pos="r" depth="1" NCoef="0" IVar="94" Cut="2.1190681457519531e+01" cType="1" res="-9.9000000000000000e+01" rms="0.0000000000000000e+00" purity="5.0843340158462524e-01" nType="0">
          <Node pos="l" depth="2" NCoef="0" IVar="-1" Cut="0.0000000000000000e+00" cType="1" res="-9.9000000000000000e+01" rms="0.0000000000000000e+00" purity="5.6462168693542480e-01" nType="1"/>
          <Node pos="r" depth="2" NCoef="0" IVar="-1" Cut="0.0000000000000000e+00" cType="1" res="-9.9000000000000000e+01" rms="0.0000000000000000e+00" purity="4.7338762879371643e-01" nType="-1"/>
        </Node>
      </Node>
    </BinaryTree>
    <BinaryTree type="DecisionTree" boostWeight="1.6494053745605208e-01" itree="16">
      <Node pos="s" depth="0" NCoef="0" IVar="5" Cut="2.4554491043090820e+01" cType="0" res="-9.9000000000000000e+01" rms="0.0000000000000000e+00" purity="5.0489103794097900e-01" nType="0">
        <Node pos="l" depth="1" NCoef="0" IVar="233" Cut="1.2968779563903809e+01" cType="0" res="-9.9000000000000000e+01" rms="0.0000000000000000e+00" purity="5.5924236774444580e-01" nType="0">
          <Node pos="l" depth="2" NCoef="0" IVar="-1" Cut="0.0000000000000000e+00" cType="1" res="-9.9000000000000000e+01" rms="0.0000000000000000e+00" purity="6.0037773847579956e-01" nType="1"/>
          <Node pos="r" depth="2" NCoef="0" IVar="-1" Cut="0.0000000000000000e+00" cType="1" res="-9.9000000000000000e+01" rms="0.0000000000000000e+00" purity="4.1652837395668030e-01" nType="-1"/>
        </Node>
        <Node pos="r" depth="1" NCoef="0" IVar="231" Cut="6.2112945556640625e+01" cType="0" res="-9.9000000000000000e+01" rms="0.0000000000000000e+00" purity="4.6392220258712769e-01" nType="0">
          <Node pos="l" depth="2" NCoef="0" IVar="-1" Cut="0.0000000000000000e+00" cType="1" res="-9.9000000000000000e+01" rms="0.0000000000000000e+00" purity="5.9425067901611328e-01" nType="1"/>
          <Node pos="r" depth="2" NCoef="0" IVar="-1" Cut="0.0000000000000000e+00" cType="1" res="-9.9000000000000000e+01" rms="0.0000000000000000e+00" purity="4.3477934598922729e-01" nType="-1"/>
        </Node>
      </Node>
    </BinaryTree>
    <BinaryTree type="DecisionTree" boostWeight="5.5784919967052218e-02" itree="17">
      <Node pos="s" depth="0" NCoef="0" IVar="223" Cut="4.2059017181396484e+01" cType="1" res="-9.9000000000000000e+01" rms="0.0000000000000000e+00" purity="5.1432353258132935e-01" nType="0">
        <Node pos="l" depth="1" NCoef="0" IVar="-1" Cut="6.9744033813476562e+01" cType="0" res="-9.9000000000000000e+01" rms="0.0000000000000000e+00" purity="5.2191883325576782e-01" nType="1"/>
        <Node pos="r" depth="1" NCoef="0" IVar="-1" Cut="0.0000000000000000e+00" cType="1" res="-9.9000000000000000e+01" rms="0.0000000000000000e+00" purity="3.2018816471099854e-01" nType="-1"/>
      </Node>
    </BinaryTree>
    <BinaryTree type="DecisionTree" boostWeight="1.1368750963216866e-01" itree="18">
      <Node pos="s" depth="0" NCoef="0" IVar="6" Cut="2.0009479522705078e+01" cType="0" res="-9.9000000000000000e+01" rms="0.0000000000000000e+00" purity="4.9929067492485046e-01" nType="0">
        <Node pos="l" depth="1" NCoef="0" IVar="248" Cut="2.4070001602172852e+01" cType="0" res="-9.9000000000000000e+01" rms="0.0000000000000000e+00" purity="5.3251791000366211e-01" nType="0">
          <Node pos="l" depth="2" NCoef="0" IVar="-1" Cut="0.0000000000000000e+00" cType="1" res="-9.9000000000000000e+01" rms="0.0000000000000000e+00" purity="6.3960683345794678e-01" nType="1"/>
          <Node pos="r" depth="2" NCoef="0" IVar="-1" Cut="0.0000000000000000e+00" cType="1" res="-9.9000000000000000e+01" rms="0.0000000000000000e+00" purity="4.9609896540641785e-01" nType="-1"/>
        </Node>
        <Node pos="r" depth="1" NCoef="0" IVar="249" Cut="4.9063026428222656e+01" cType="0" res="-9.9000000000000000e+01" rms="0.0000000000000000e+00" purity="4.4976976513862610e-01" nType="0">
          <Node pos="l" depth="2" NCoef="0" IVar="-1" Cut="0.0000000000000000e+00" cType="1" res="-9.9000000000000000e+01" rms="0.0000000000000000e+00" purity="5.6031036376953125e-01" nType="1"/>
          <Node pos="r" depth="2" NCoef="0" IVar="-1" Cut="0.0000000000000000e+00" cType="1" res="-9.9000000000000000e+01" rms="0.0000000000000000e+00" purity="4.0711635351181030e-01" nType="-1"/>
        </Node>
      </Node>
    </BinaryTree>
    <BinaryTree type="DecisionTree" boostWeight="1.0313763304633848e-01" itree="19">
      <Node pos="s" depth="0" NCoef="0" IVar="11" Cut="1.9874864578247070e+01" cType="0" res="-9.9000000000000000e+01" rms="0.0000000000000000e+00" purity="5.1020127534866333e-01" nType="0">
        <Node pos="l" depth="1" NCoef="0" IVar="-1" Cut="3.1440166473388672e+01" cType="0" res="-9.9000000000000000e+01" rms="0.0000000000000000e+00" purity="5.5507045984268188e-01" nType="1"/>
        <Node pos="r" depth="1" NCoef="0" IVar="191" Cut="2.0244726181030273e+01" cType="1" res="-9.9000000000000000e+01" rms="0.0000000000000000e+00" purity="4.6951612830162048e-01" nType="0">
          <Node pos="l" depth="2" NCoef="0" IVar="-1" Cut="0.0000000000000000e+00" cType="1" res="-9.9000000000000000e+01" rms="0.0000000000000000e+00" purity="5.1559680700302124e-01" nType="1"/>
          <Node pos="r" depth="2" NCoef="0" IVar="-1" Cut="0.0000000000000000e+00" cType="1" res="-9.9000000000000000e+01" rms="0.0000000000000000e+00" purity="4.1014426946640015e-01" nType="-1"/>
        </Node>
      </Node>
    </BinaryTree>
    <BinaryTree type="DecisionTree" boostWeight="1.0707079518464575e-01" itree="20">
      <Node pos="s" depth="0" NCoef="0" IVar="24" Cut="2.0228290557861328e+01" cType="0" res="-9.9000000000000000e+01" rms="0.0000000000000000e+00" purity="5.0691932439804077e-01" nType="0">
        <Node pos="l" depth="1" NCoef="0" IVar="-1" Cut="3.0393791198730469e+01" cType="0" res="-9.9000000000000000e+01" rms="0.0000000000000000e+00" purity="5.3453636169433594e-01" nType="1"/>
        <Node pos="r" depth="1" NCoef="0" IVar="233" Cut="6.8890586853027344e+01" cType="0" res="-9.9000000000000000e+01" rms="0.0000000000000000e+00" purity="4.2507389187812805e-01" nType="0">
          <Node pos="l" depth="2" NCoef="0" IVar="-1" Cut="0.0000000000000000e+00" cType="1" res="-9.9000000000000000e+01" rms="0.0000000000000000e+00" purity="6.1500722169876099e-01" nType="1"/>
          <Node pos="r" depth="2" NCoef="0" IVar="-1" Cut="0.0000000000000000e+00" cType="1" res="-9.9000000000000000e+01" rms="0.0000000000000000e+00" purity="3.9200633764266968e-01" nType="-1"/>
        </Node>
      </Node>
    </BinaryTree>
    <BinaryTree type="DecisionTree" boostWeight="9.4477957653227723e-02" itree="21">
      <Node pos="s" depth="0" NCoef="0" IVar="177" Cut="1.5018079757690430e+01" cType="1" res="-9.9000000000000000e+01" rms="0.0000000000000000e+00" purity="4.9925607442855835e-01" nType="0">
        <Node pos="l" depth="1" NCoef="0" IVar="215" Cut="1.7215337753295898e+01" cType="0" res="-9.9000000000000000e+01" rms="0.0000000000000000e+00" purity="5.7232385873794556e-01" nType="0">
          <Node pos="l" depth="2" NCoef="0" IVar="-1" Cut="0.0000000000000000e+00" cType="1" res="-9.9000000000000000e+01" rms="0.0000000000000000e+00" purity="6.0238581895828247e-01" nType="1"/>
          <Node pos="r" depth="2" NCoef="0" IVar="-1" Cut="0.0000000000000000e+00" cType="1" res="-9.9000000000000000e+01" rms="0.0000000000000000e+00" purity="3.7858432531356812e-01" nType="-1"/>
        </Node>
        <Node pos="r" depth="1" NCoef="0" IVar="-1" Cut="4.6943923950195312e+01" cType="1" res="-9.9000000000000000e+01" rms="0.0000000000000000e+00" purity="4.7338306903839111e-01" nType="-1"/>
      </Node>
    </BinaryTree>
    <BinaryTree type="DecisionTree" boostWeight="5.6120394258738139e-02" itree="22">
      <Node pos="s" depth="0" NCoef="0" IVar="56" Cut="2.5704210281372070e+01" cType="0" res="-9.9000000000000000e+01" rms="0.0000000000000000e+00" purity="5.0626790523529053e-01" nType="0">
        <Node pos="l" depth="1" NCoef="0" IVar="-1" Cut="7.2517456054687500e+01" cType="0" res="-9.9000000000000000e+01" rms="0.0000000000000000e+00" purity="5.1844918727874756e-01" nType="1"/>
        <Node pos="r" depth="1" NCoef="0" IVar="-1" Cut="1.9374622344970703e+01" cType="0" res="-9.9000000000000000e+01" rms="0.0000000000000000e+00" purity="3.4555459022521973e-01" nType="-1"/>
      </Node>
    </BinaryTree>
    <BinaryTree type="DecisionTree" boostWeight="1.0757739520398890e-01" itree="23">
      <Node pos="s" depth="0" NCoef="0" IVar="10" Cut="5.4720684051513672e+01" cType="0" res="-9.9000000000000000e+01" rms="0.0000000000000000e+00" purity="4.9326056241989136e-01" nType="0">
        <Node pos="l" depth="1" NCoef="0" IVar="-1" Cut="0.0000000000000000e+00" cType="1" res="-9.9000000000000000e+01" rms="0.0000000000000000e+00" purity="6.6492253541946411e-01" nType="1"/>
        <Node pos="r" depth="1" NCoef="0" IVar="79" Cut="1.5900218009948730e+01" cType="1" res="-9.9000000000000000e+01" rms="0.0000000000000000e+00" purity="4.8475229740142822e-01" nType="0">
          <Node pos="l" depth="2" NCoef="0" IVar="-1" Cut="0.0000000000000000e+00" cType="1" res="-9.9000000000000000e+01" rms="0.0000000000000000e+00" purity="5.3593713045120239e-01" nType="1"/>
          <Node pos="r" depth="2" NCoef="0" IVar="-1" Cut="0.0000000000000000e+00" cType="1" res="-9.9000000000000000e+01" rms="0.0000000000000000e+00" purity="4.4174787402153015e-01" nType="-1"/>
        </Node>
      </Node>
    </BinaryTree>
    <BinaryTree type="DecisionTree" boostWeight="9.5119998478142037e-02" itree="24">
      <Node pos="s" depth="0" NCoef="0" IVar="247" Cut="1.4607643127441406e+01" cType="0" res="-9.9000000000000000e+01" rms="0.0000000000000000e+00" purity="4.8436808586120605e-01" nType="0">
        <Node pos="l" depth="1" NCoef="0" IVar="26" Cut="4.1039859771728516e+01" cType="0" res="-9.9000000000000000e+01" rms="0.0000000000000000e+00" purity="5.0855100154876709e-01" nType="0">
          <Node pos="l" depth="2" NCoef="0" IVar="-1" Cut="0.0000000000000000e+00" cType="1" res="-9.9000000000000000e+01" rms="0.0000000000000000e+00" purity="6.2635260820388794e-01" nType="1"/>
          <Node pos="r" depth="2" NCoef="0" IVar="-1" Cut="0.0000000000000000e+00" cType="1" res="-9.9000000000000000e+01" rms="0.0000000000000000e+00" purity="4.8433873057365417e-01" nType="-1"/>
        </Node>
        <Node pos="r" depth="1" NCoef="0" IVar="-1" Cut="5.3486713409423828e+01" cType="0" res="-9.9000000000000000e+01" rms="0.0000000000000000e+00" purity="4.1633948683738708e-01" nType="-1"/>
      </Node>
    </BinaryTree>
    <BinaryTree type="DecisionTree" boostWeight="1.2786846871759802e-01" itree="25">
      <Node pos="s" depth="0" NCoef="0" IVar="250" Cut="2.3621343612670898e+01" cType="0" res="-9.9000000000000000e+01" rms="0.0000000000000000e+00" purity="4.9858310818672180e-01" nType="0">
        <Node pos="l" depth="1" NCoef="0" IVar="9" Cut="8.5876607894897461e+00" cType="0" res="-9.9000000000000000e+01" rms="0.0000000000000000e+00" purity="5.4425853490829468e-01" nType="0">
          <Node pos="l" depth="2" NCoef="0" IVar="-1" Cut="0.0000000000000000e+00" cType="1" res="-9.9000000000000000e+01" rms="0.0000000000000000e+00" purity="5.8720517158508301e-01" nType="1"/>
          <Node pos="r" depth="2" NCoef="0" IVar="-1" Cut="0.0000000000000000e+00" cType="1" res="-9.9000000000000000e+01" rms="0.0000000000000000e+00" purity="3.9939120411872864e-01" nType="-1"/>
        </Node>
        <Node pos="r" depth="1" NCoef="0" IVar="6" Cut="2.8883058547973633e+01" cType="0" res="-9.9000000000000000e+01" rms="0.0000000000000000e+00" purity="4.6027559041976929e-01" nType="0">
          <Node pos="l" depth="2" NCoef="0" IVar="-1" Cut="0.0000000000000000e+00" cType="1" res="-9.9000000000000000e+01" rms="0.0000000000000000e+00" purity="5.0111180543899536e-01" nType="1"/>
          <Node pos="r" depth="2" NCoef="0" IVar="-1" Cut="0.0000000000000000e+00" cType="1" res="-9.9000000000000000e+01" rms="0.0000000000000000e+00" purity="3.7806659936904907e-01" nType="-1"/>
        </Node>
      </Node>
    </BinaryTree>
    <BinaryTree type="DecisionTree" boostWeight="1.0339084220263992e-01" itree="26">
      <Node pos="s" depth="0" NCoef="0" IVar="94" Cut="6.1015697479248047e+01" cType="1" res="-9.9000000000000000e+01" rms="0.0000000000000000e+00" purity="4.9656519293785095e-01" nType="0">
        <Node pos="l" depth="1" NCoef="0" IVar="130" Cut="3.5201126098632812e+01" cType="1" res="-9.9000000000000000e+01" rms="0.0000000000000000e+00" purity="5.0748783349990845e-01" nType="0">
          <Node pos="l" depth="2" NCoef="0" IVar="-1" Cut="0.0000000000000000e+00" cType="1" res="-9.9000000000000000e+01" rms="0.0000000000000000e+00" purity="5.6964087486267090e-01" nType="1"/>
          <Node pos="r" depth="2" NCoef="0" IVar="-1" Cut="0.0000000000000000e+00" cType="1" res="-9.9000000000000000e+01" rms="0.0000000000000000e+00" purity="4.7105985879898071e-01" nType="-1"/>
        </Node>
        <Node pos="r" depth="1" NCoef="0" IVar="-1" Cut="4.8463081359863281e+01" cType="0" res="-9.9000000000000000e+01" rms="0.0000000000000000e+00" purity="3.4168711304664612e-01" nType="-1"/>
      </Node>
    </BinaryTree>
    <BinaryTree type="DecisionTree" boostWeight="9.8811547189659829e-02" itree="27">
      <Node pos="s" depth="0" NCoef="0" IVar="124" Cut="2.6282527923583984e+01" cType="1" res="-9.9000000000000000e+01" rms="0.0000000000000000e+00" purity="5.0026899576187134e-01" nType="0">
        <Node pos="l" depth="1" NCoef="0" IVar="-1" Cut="4.8391204833984375e+01" cType="1" res="-9.9000000000000000e+01" rms="0.0000000000000000e+00" purity="6.3561892509460449e-01" nType="1"/>
        <Node pos="r" depth="1" NCoef="0" IVar="112" Cut="3.1691888809204102e+01" cType="1" res="-9.9000000000000000e+01" rms="0.0000000000000000e+00" purity="4.8355415463447571e-01" nType="0">
          <Node pos="l" depth="2" NCoef="0" IVar="-1" Cut="0.0000000000000000e+00" cType="1" res="-9.9000000000000000e+01" rms="0.0000000000000000e+00" purity="5.1545739173889160e-01" nType="1"/>
          <Node pos="r" depth="2" NCoef="0" IVar="-1" Cut="0.0000000000000000e+00" cType="1" res="-9.9000000000000000e+01" rms="0.0000000000000000e+00" purity="4.0314334630966187e-01" nType="-1"/>
        </Node>
      </Node>
    </BinaryTree>
    <BinaryTree type="DecisionTree" boostWeight="1.4574008312226155e-01" itree="28">
      <Node pos="s" depth="0" NCoef="0" IVar="175" Cut="1.3012305259704590e+01" cType="1" res="-9.9000000000000000e+01" rms="0.0000000000000000e+00" purity="5.0417530536651611e-01" nType="0">
        <Node pos="l" depth="1" NCoef="0" IVar="80" Cut="5.1587738037109375e+01" cType="1" res="-9.9000000000000000e+01" rms="0.0000000000000000e+00" purity="5.7794743776321411e-01" nType="0">
          <Node pos="l" depth="2" NCoef="0" IVar="-1" Cut="0.0000000000000000e+00" cType="1" res="-9.9000000000000000e+01" rms="0.0000000000000000e+00" purity="6.1909514665603638e-01" nType="1"/>
          <Node pos="r" depth="2" NCoef="0" IVar="-1" Cut="0.0000000000000000e+00" cType="1" res="-9.9000000000000000e+01" rms="0.0000000000000000e+00" purity="3.9631474018096924e-01" nType="-1"/>
        </Node>
        <Node pos="r" depth="1" NCoef="0" IVar="97" Cut="1.3526490211486816e+01" cType="1" res="-9.9000000000000000e+01" rms="0.0000000000000000e+00" purity="4.7280219197273254e-01" nType="0">
          <Node pos="l" depth="2" NCoef="0" IVar="-1" Cut="0.0000000000000000e+00" cType="1" res="-9.9000000000000000e+01" rms="0.0000000000000000e+00" purity="5.6925499439239502e-01" nType="1"/>
          <Node pos="r" depth="2" NCoef="0" IVar="-1" Cut="0.0000000000000000e+00" cType="1" res="-9.9000000000000000e+01" rms="0.0000000000000000e+00" purity="4.4998779892921448e-01" nType="-1"/>
        </Node>
      </Node>
    </BinaryTree>
    <BinaryTree type="DecisionTree" boostWeight="6.2132959211800079e-02" itree="29">
      <Node pos="s" depth="0" NCoef="0" IVar="142" Cut="1.3482679367065430e+01" cType="1" res="-9.9000000000000000e+01" rms="0.0000000000000000e+00" purity="5.0700765848159790e-01" nType="0">
        <Node pos="l" depth="1" NCoef="0" IVar="191" Cut="1.2557405471801758e+01" cType="1" res="-9.9000000000000000e+01" rms="0.0000000000000000e+00" purity="6.1272716522216797e-01" nType="0">
          <Node pos="l" depth="2" NCoef="0" IVar="-1" Cut="0.0000000000000000e+00" cType="1" res="-9.9000000000000000e+01" rms="0.0000000000000000e+00" purity="6.6457849740982056e-01" nType="1"/>
          <Node pos="r" depth="2" NCoef="0" IVar="-1" Cut="0.0000000000000000e+00" cType="1" res="-9.9000000000000000e+01" rms="0.0000000000000000e+00" purity="4.3641912937164307e-01" nType="-1"/>
        </Node>
        <Node pos="r" depth="1" NCoef="0" IVar="128" Cut="5.3144805908203125e+01" cType="1" res="-9.9000000000000000e+01" rms="0.0000000000000000e+00" purity="4.8874455690383911e-01" nType="0">
          <Node pos="l" depth="2" NCoef="0" IVar="-1" Cut="0.0000000000000000e+00" cType="1" res="-9.9000000000000000e+01" rms="0.0000000000000000e+00" purity="5.0034826993942261e-01" nType="1"/>
          <Node pos="r" depth="2" NCoef="0" IVar="-1" Cut="0.0000000000000000e+00" cType="1" res="-9.9000000000000000e+01" rms="0.0000000000000000e+00" purity="2.4340237677097321e-01" nType="-1"/>
        </Node>
      </Node>
    </BinaryTree>
    <BinaryTree type="DecisionTree" boostWeight="8.1652182256995970e-02" itree="30">
      <Node pos="s" depth="0" NCoef="0" IVar="214" Cut="1.8925359725952148e+01" cType="0" res="-9.9000000000000000e+01" rms="0.0000000000000000e+00" purity="4.8591488599777222e-01" nType="0">
        <Node pos="l" depth="1" NCoef="0" IVar="148" Cut="3.7405635833740234e+01" cType="1" res="-9.9000000000000000e+01" rms="0.0000000000000000e+00" purity="4.9974220991134644e-01" nType="0">
          <Node pos="l" depth="2" NCoef="0" IVar="-1" Cut="0.0000000000000000e+00" cType="1" res="-9.9000000000000000e+01" rms="0.0000000000000000e+00" purity="6.2384641170501709e-01" nType="1"/>
          <Node pos="r" depth="2" NCoef="0" IVar="-1" Cut="0.0000000000000000e+00" cType="1" res="-9.9000000000000000e+01" rms="0.0000000000000000e+00" purity="4.8291707038879395e-01" nType="-1"/>
        </Node>
        <Node pos="r" depth="1" NCoef="0" IVar="-1" Cut="2.5063011169433594e+01" cType="1" res="-9.9000000000000000e+01" rms="0.0000000000000000e+00" purity="3.5974889993667603e-01" nType="-1"/>
      </Node>
    </BinaryTree>
    <BinaryTree type="DecisionTree" boostWeight="1.4550909604031922e-01" itree="31">
      <Node pos="s" depth="0" NCoef="0" IVar="231" Cut="2.8132495880126953e+01" cType="0" res="-9.9000000000000000e+01" rms="0.0000000000000000e+00" purity="4.9746069312095642e-01" nType="0">
        <Node pos="l" depth="1" NCoef="0" IVar="39" Cut="2.6290130615234375e+01" cType="0" res="-9.9000000000000000e+01" rms="0.0000000000000000e+00" purity="5.3789794445037842e-01" nType="0">
          <Node pos="l" depth="2" NCoef="0" IVar="-1" Cut="0.0000000000000000e+00" cType="1" res="-9.9000000000000000e+01" rms="0.0000000000000000e+00" purity="5.9337645769119263e-01" nType="1"/>
          <Node pos="r" depth="2" NCoef="0" IVar="-1" Cut="0.0000000000000000e+00" cType="1" res="-9.9000000000000000e+01" rms="0.0000000000000000e+00" purity="4.3746706843376160e-01" nType="-1"/>
        </Node>
        <Node pos="r" depth="1" NCoef="0" IVar="-1" Cut="4.1644157409667969e+01" cType="0" res="-9.9000000000000000e+01" rms="0.0000000000000000e+00" purity="4.4174700975418091e-01" nType="-1"/>
      </Node>
    </BinaryTree>
    <BinaryTree type="DecisionTree" boostWeight="1.2222562562159166e-01" itree="32">
      <Node pos="s" depth="0" NCoef="0" IVar="6" Cut="3.8368392944335938e+01" cType="0" res="-9.9000000000000000e+01" rms="0.0000000000000000e+00" purity="5.1244413852691650e-01" nType="0">
        <Node pos="l" depth="1" NCoef="0" IVar="200" Cut="2.8988712310791016e+01" cType="0" res="-9.9000000000000000e+01" rms="0.0000000000000000e+00" purity="5.9127521514892578e-01" nType="0">
          <Node pos="l" depth="2" NCoef="0" IVar="-1" Cut="0.0000000000000000e+00" cType="1" res="-9.9000000000000000e+01" rms="0.0000000000000000e+00" purity="6.5483945608139038e-01" nType="1"/>
          <Node pos="r" depth="2" NCoef="0" IVar="-1" Cut="0.0000000000000000e+00" cType="1" res="-9.9000000000000000e+01" rms="0.0000000000000000e+00" purity="4.7912105917930603e-01" nType="-1"/>
        </Node>
        <Node pos="r" depth="1" NCoef="0" IVar="93" Cut="4.0384368896484375e+01" cType="1" res="-9.9000000000000000e+01" rms="0.0000000000000000e+00" purity="4.8705768585205078e-01" nType="0">
          <Node pos="l" depth="2" NCoef="0" IVar="-1" Cut="0.0000000000000000e+00" cType="1" res="-9.9000000000000000e+01" rms="0.0000000000000000e+00" purity="5.2836769819259644e-01" nType="1"/>
          <Node pos="r" depth="2" NCoef="0" IVar="-1" Cut="0.0000000000000000e+00" cType="1" res="-9.9000000000000000e+01" rms="0.0000000000000000e+00" purity="4.2881497740745544e-01" nType="-1"/>
        </Node>
      </Node>
    </BinaryTree>
    <BinaryTree type="DecisionTree" boostWeight="6.1174001292590138e-02" itree="33">
      <Node pos="s" depth="0" NCoef="0" IVar="111" Cut="4.6844532012939453e+01" cType="1" res="-9.9000000000000000e+01" rms="0.0000000000000000e+00" purity="4.9918094277381897e-01" nType="0">
        <Node pos="l" depth="1" NCoef="0" IVar="-1" Cut="1.7072824478149414e+01" cType="1" res="-9.9000000000000000e+01" rms="0.0000000000000000e+00" purity="5.1402819156646729e-01" nType="1"/>
        <Node pos="r" depth="1" NCoef="0" IVar="81" Cut="1.0203685760498047e+01" cType="1" res="-9.9000000000000000e+01" rms="0.0000000000000000e+00" purity="3.8536748290061951e-01" nType="0">
          <Node pos="l" depth="2" NCoef="0" IVar="-1" Cut="0.0000000000000000e+00" cType="1" res="-9.9000000000000000e+01" rms="0.0000000000000000e+00" purity="5.7647377252578735e-01" nType="1"/>
          <Node pos="r" depth="2" NCoef="0" IVar="-1" Cut="0.0000000000000000e+00" cType="1" res="-9.9000000000000000e+01" rms="0.0000000000000000e+00" purity="3.1169196963310242e-01" nType="-1"/>
        </Node>
      </Node>
    </BinaryTree>
    <BinaryTree type="DecisionTree" boostWeight="5.9374442192782338e-02" itree="34">
      <Node pos="s" depth="0" NCoef="0" IVar="143" Cut="4.0508819580078125e+01" cType="1" res="-9.9000000000000000e+01" rms="0.0000000000000000e+00" purity="4.9915707111358643e-01" nType="0">
        <Node pos="l" depth="1" NCoef="0" IVar="128" Cut="9.2441101074218750e+00" cType="1" res="-9.9000000000000000e+01" rms="0.0000000000000000e+00" purity="5.1762259006500244e-01" nType="0">
          <Node pos="l" depth="2" NCoef="0" IVar="-1" Cut="0.0000000000000000e+00" cType="1" res="-9.9000000000000000e+01" rms="0.0000000000000000e+00" purity="7.5905561447143555e-01" nType="1"/>
          <Node pos="r" depth="2" NCoef="0" IVar="-1" Cut="0.0000000000000000e+00" cType="1" res="-9.9000000000000000e+01" rms="0.0000000000000000e+00" purity="4.9964538216590881e-01" nType="-1"/>
        </Node>
        <Node pos="r" depth="1" NCoef="0" IVar="-1" Cut="2.2668241500854492e+01" cType="1" res="-9.9000000000000000e+01" rms="0.0000000000000000e+00" purity="4.2418572306632996e-01" nType="-1"/>
      </Node>
    </BinaryTree>
    <BinaryTree type="DecisionTree" boostWeight="1.2956134739027497e-01" itree="35">
      <Node pos="s" depth="0" NCoef="0" IVar="176" Cut="7.3964328765869141e+00" cType="1" res="-9.9000000000000000e+01" rms="0.0000000000000000e+00" purity="5.0693303346633911e-01" nType="0">
        <Node pos="l" depth="1" NCoef="0" IVar="243" Cut="5.5039501190185547e+00" cType="0" res="-9.9000000000000000e+01" rms="0.0000000000000000e+00" purity="5.9654432535171509e-01" nType="0">
          <Node pos="l" depth="2" NCoef="0" IVar="-1" Cut="0.0000000000000000e+00" cType="1" res="-9.9000000000000000e+01" rms="0.0000000000000000e+00" purity="6.5828621387481689e-01" nType="1"/>
          <Node pos="r" depth="2" NCoef="0" IVar="-1" Cut="0.0000000000000000e+00" cType="1" res="-9.9000000000000000e+01" rms="0.0000000000000000e+00" purity="4.7208416461944580e-01" nType="-1"/>
        </Node>
        <Node pos="r" depth="1" NCoef="0" IVar="143" Cut="2.2216060638427734e+01" cType="1" res="-9.9000000000000000e+01" rms="0.0000000000000000e+00" purity="4.8851710557937622e-01" nType="0">
          <Node pos="l" depth="2" NCoef="0" IVar="-1" Cut="0.0000000000000000e+00" cType="1" res="-9.9000000000000000e+01" rms="0.0000000000000000e+00" purity="5.3746873140335083e-01" nType="1"/>
          <Node pos="r" depth="2" NCoef="0" IVar="-1" Cut="0.0000000000000000e+00" cType="1" res="-9.9000000000000000e+01" rms="0.0000000000000000e+00" purity="4.2427021265029907e-01" nType="-1"/>
        </Node>
      </Node>
    </BinaryTree>
    <BinaryTree type="DecisionTree" boostWeight="1.0151774521713533e-01" itree="36">
      <Node pos="s" depth="0" NCoef="0" IVar="235" Cut="5.3854203224182129e+00" cType="0" res="-9.9000000000000000e+01" rms="0.0000000000000000e+00" purity="4.9008035659790039e-01" nType="0">
        <Node pos="l" depth="1" NCoef="0" IVar="8" Cut="2.0151500701904297e+01" cType="0" res="-9.9000000000000000e+01" rms="0.0000000000000000e+00" purity="4.9992060661315918e-01" nType="0">
          <Node pos="l" depth="2" NCoef="0" IVar="-1" Cut="0.0000000000000000e+00" cType="1" res="-9.9000000000000000e+01" rms="0.0000000000000000e+00" purity="5.3806811571121216e-01" nType="1"/>
          <Node pos="r" depth="2" NCoef="0" IVar="-1" Cut="0.0000000000000000e+00" cType="1" res="-9.9000000000000000e+01" rms="0.0000000000000000e+00" purity="4.5007538795471191e-01" nType="-1"/>
        </Node>
        <Node pos="r" depth="1" NCoef="0" IVar="-1" Cut="2.0631050109863281e+01" cType="1" res="-9.9000000000000000e+01" rms="0.0000000000000000e+00" purity="3.2763394713401794e-01" nType="-1"/>
      </Node>
    </BinaryTree>
    <BinaryTree type="DecisionTree" boostWeight="9.4861534743752030e-02" itree="37">
      <Node pos="s" depth="0" NCoef="0" IVar="9" Cut="4.4952102661132812e+01" cType="0" res="-9.9000000000000000e+01" rms="0.0000000000000000e+00" purity="5.0887900590896606e-01" nType="0">
        <Node pos="l" depth="1" NCoef="0" IVar="-1" Cut="1.2528214454650879e+01" cType="1" res="-9.9000000000000000e+01" rms="0.0000000000000000e+00" purity="6.0976231098175049e-01" nType="1"/>
        <Node pos="r" depth="1" NCoef="0" IVar="249" Cut="5.5529350280761719e+01" cType="0" res="-9.9000000000000000e+01" rms="0.0000000000000000e+00" purity="4.8865318298339844e-01" nType="0">
          <Node pos="l" depth="2" NCoef="0" IVar="-1" Cut="0.0000000000000000e+00" cType="1" res="-9.9000000000000000e+01" rms="0.0000000000000000e+00" purity="6.6919881105422974e-01" nType="1"/>
          <Node pos="r" depth="2" NCoef="0" IVar="-1" Cut="0.0000000000000000e+00" cType="1" res="-9.9000000000000000e+01" rms="0.0000000000000000e+00" purity="4.7523063421249390e-01" nType="-1"/>
        </Node>
      </Node>
    </BinaryTree>
    <BinaryTree type="DecisionTree" boostWeight="1.5134554032608288e-01" itree="38">
      <Node pos="s" depth="0" NCoef="0" IVar="192" Cut="1.1911150932312012e+01" cType="1" res="-9.9000000000000000e+01" rms="0.0000000000000000e+00" purity="5.1363891363143921e-01" nType="0">
        <Node pos="l" depth="1" NCoef="0" IVar="183" Cut="3.3127601623535156e+01" cType="0" res="-9.9000000000000000e+01" rms="0.0000000000000000e+00" purity="5.7429027557373047e-01" nType="0">
          <Node pos="l" depth="2" NCoef="0" IVar="-1" Cut="0.0000000000000000e+00" cType="1" res="-9.9000000000000000e+01" rms="0.0000000000000000e+00" purity="5.9810668230056763e-01" nType="1"/>
          <Node pos="r" depth="2" NCoef="0" IVar="-1" Cut="0.0000000000000000e+00" cType="1" res="-9.9000000000000000e+01" rms="0.0000000000000000e+00" purity="3.7342762947082520e-01" nType="-1"/>
        </Node>
        <Node pos="r" depth="1" NCoef="0" IVar="78" Cut="1.2392471313476562e+01" cType="1" res="-9.9000000000000000e+01" rms="0.0000000000000000e+00" purity="4.7406116127967834e-01" nType="0">
          <Node pos="l" depth="2" NCoef="0" IVar="-1" Cut="0.0000000000000000e+00" cType="1" res="-9.9000000000000000e+01" rms="0.0000000000000000e+00" purity="5.5299931764602661e-01" nType="1"/>
          <Node pos="r" depth="2" NCoef="0" IVar="-1" Cut="0.0000000000000000e+00" cType="1" res="-9.9000000000000000e+01" rms="0.0000000000000000e+00" purity="4.3964993953704834e-01" nType="-1"/>
        </Node>
      </Node>
    </BinaryTree>
    <BinaryTree type="DecisionTree" boostWeight="6.0322005171680654e-02" itree="39">
      <Node pos="s" depth="0" NCoef="0" IVar="97" Cut="8.2732305526733398e+00" cType="1" res="-9.9000000000000000e+01" rms="0.0000000000000000e+00" purity="4.8780605196952820e-01" nType="0">
        <Node pos="l" depth="1" NCoef="0" IVar="-1" Cut="4.6258495330810547e+01" cType="1" res="-9.9000000000000000e+01" rms="0.0000000000000000e+00" purity="6.4408475160598755e-01" nType="1"/>
        <Node pos="r" depth="1" NCoef="0" IVar="127" Cut="3.7544734954833984e+01" cType="1" res="-9.9000000000000000e+01" rms="0.0000000000000000e+00" purity="4.7826915979385376e-01" nType="0">
          <Node pos="l" depth="2" NCoef="0" IVar="-1" Cut="0.0000000000000000e+00" cType="1" res="-9.9000000000000000e+01" rms="0.0000000000000000e+00" purity="5.0091087818145752e-01" nType="1"/>
          <Node pos="r" depth="2" NCoef="0" IVar="-1" Cut="0.0000000000000000e+00" cType="1" res="-9.9000000000000000e+01" rms="0.0000000000000000e+00" purity="3.9309033751487732e-01" nType="-1"/>
        </Node>
      </Node>
    </BinaryTree>
    <BinaryTree type="DecisionTree" boostWeight="1.6826719467670928e-01" itree="40">
      <Node pos="s" depth="0" NCoef="0" IVar="233" Cut="2.4438964843750000e+01" cType="0" res="-9.9000000000000000e+01" rms="0.0000000000000000e+00" purity="5.0529438257217407e-01" nType="0">
        <Node pos="l" depth="1" NCoef="0" IVar="22" Cut="1.4575474739074707e+01" cType="0" res="-9.9000000000000000e+01" rms="0.0000000000000000e+00" purity="5.3769785165786743e-01" nType="0">
          <Node pos="l" depth="2" NCoef="0" IVar="-1" Cut="0.0000000000000000e+00" cType="1" res="-9.9000000000000000e+01" rms="0.0000000000000000e+00" purity="5.6734812259674072e-01" nType="1"/>
          <Node pos="r" depth="2" NCoef="0" IVar="-1" Cut="0.0000000000000000e+00" cType="1" res="-9.9000000000000000e+01" rms="0.0000000000000000e+00" purity="4.2352914810180664e-01" nType="-1"/>
        </Node>
        <Node pos="r" depth="1" NCoef="0" IVar="7" Cut="5.0544578552246094e+01" cType="0" res="-9.9000000000000000e+01" rms="0.0000000000000000e+00" purity="4.4469714164733887e-01" nType="0">
          <Node pos="l" depth="2" NCoef="0" IVar="-1" Cut="0.0000000000000000e+00" cType="1" res="-9.9000000000000000e+01" rms="0.0000000000000000e+00" purity="5.9243148565292358e-01" nType="1"/>
          <Node pos="r" depth="2" NCoef="0" IVar="-1" Cut="0.0000000000000000e+00" cType="1" res="-9.9000000000000000e+01" rms="0.0000000000000000e+00" purity="3.8301464915275574e-01" nType="-1"/>
        </Node>
      </Node>
    </BinaryTree>
    <BinaryTree type="DecisionTree" boostWeight="8.3771337423358017e-02" itree="41">
      <Node pos="s" depth="0" NCoef="0" IVar="128" Cut="8.7548465728759766e+00" cType="1" res="-9.9000000000000000e+01" rms="0.0000000000000000e+00" purity="5.1332861185073853e-01" nType="0">
        <Node pos="l" depth="1" NCoef="0" IVar="-1" Cut="5.5836185455322266e+01" cType="1" res="-9.9000000000000000e+01" rms="0.0000000000000000e+00" purity="6.5071964263916016e-01" nType="1"/>
        <Node pos="r" depth="1" NCoef="0" IVar="124" Cut="2.2581138610839844e+01" cType="1" res="-9.9000000000000000e+01" rms="0.0000000000000000e+00" purity="4.9257275462150574e-01" nType="0">
          <Node pos="l" depth="2" NCoef="0" IVar="-1" Cut="0.0000000000000000e+00" cType="1" res="-9.9000000000000000e+01" rms="0.0000000000000000e+00" purity="6.3154131174087524e-01" nType="1"/>
          <Node pos="r" depth="2" NCoef="0" IVar="-1" Cut="0.0000000000000000e+00" cType="1" res="-9.9000000000000000e+01" rms="0.0000000000000000e+00" purity="4.8242452740669250e-01" nType="-1"/>
        </Node>
      </Node>
    </BinaryTree>
    <BinaryTree type="DecisionTree" boostWeight="8.3120098709914506e-02" itree="42">
      <Node pos="s" depth="0" NCoef="0" IVar="235" Cut="5.3854203224182129e+00" cType="0" res="-9.9000000000000000e+01" rms="0.0000000000000000e+00" purity="5.0409817695617676e-01" nType="0">
        <Node pos="l" depth="1" NCoef="0" IVar="6" Cut="3.0153545379638672e+01" cType="0" res="-9.9000000000000000e+01" rms="0.0000000000000000e+00" purity="5.1285821199417114e-01" nType="0">
          <Node pos="l" depth="2" NCoef="0" IVar="-1" Cut="0.0000000000000000e+00" cType="1" res="-9.9000000000000000e+01" rms="0.0000000000000000e+00" purity="5.6768220663070679e-01" nType="1"/>
          <Node pos="r" depth="2" NCoef="0" IVar="-1" Cut="0.0000000000000000e+00" cType="1" res="-9.9000000000000000e+01" rms="0.0000000000000000e+00" purity="4.8306331038475037e-01" nType="-1"/>
        </Node>
        <Node pos="r" depth="1" NCoef="0" IVar="-1" Cut="0.0000000000000000e+00" cType="1" res="-9.9000000000000000e+01" rms="0.0000000000000000e+00" purity="3.1403517723083496e-01" nType="-1"/>
      </Node>
    </BinaryTree>
    <BinaryTree type="DecisionTree" boostWeight="8.9268728642645206e-02" itree="43">
      <Node pos="s" depth="0" NCoef="0" IVar="231" Cut="4.3457611083984375e+01" cType="0" res="-9.9000000000000000e+01" rms="0.0000000000000000e+00" purity="5.0557333230972290e-01" nType="0">
        <Node pos="l" depth="1" NCoef="0" IVar="-1" Cut="1.9280075073242188e+01" cType="0" res="-9.9000000000000000e+01" rms="0.0000000000000000e+00" purity="5.7362943887710571e-01" nType="1"/>
        <Node pos="r" depth="1" NCoef="0" IVar="-1" Cut="1.7151334762573242e+01" cType="0" res="-9.9000000000000000e+01" rms="0.0000000000000000e+00" purity="4.7049129009246826e-01" nType="-1"/>
      </Node>
    </BinaryTree>
    <BinaryTree type="DecisionTree" boostWeight="8.9737977703278071e-02" itree="44">
      <Node pos="s" depth="0" NCoef="0" IVar="99" Cut="2.2321916580200195e+01" cType="1" res="-9.9000000000000000e+01" rms="0.0000000000000000e+00" purity="5.0059562921524048e-01" nType="0">
        <Node pos="l" depth="1" NCoef="0" IVar="-1" Cut="6.8840499877929688e+01" cType="1" res="-9.9000000000000000e+01" rms="0.0000000000000000e+00" purity="6.4875239133834839e-01" nType="1"/>
        <Node pos="r" depth="1" NCoef="0" IVar="127" Cut="3.6633392333984375e+01" cType="1" res="-9.9000000000000000e+01" rms="0.0000000000000000e+00" purity="4.8868244886398315e-01" nType="0">
          <Node pos="l" depth="2" NCoef="0" IVar="-1" Cut="0.0000000000000000e+00" cType="1" res="-9.9000000000000000e+01" rms="0.0000000000000000e+00" purity="5.1597422361373901e-01" nType="1"/>
          <Node pos="r" depth="2" NCoef="0" IVar="-1" Cut="0.0000000000000000e+00" cType="1" res="-9.9000000000000000e+01" rms="0.0000000000000000e+00" purity="3.8923779129981995e-01" nType="-1"/>
        </Node>
      </Node>
    </BinaryTree>
    <BinaryTree type="DecisionTree" boostWeight="9.4178093404294491e-02" itree="45">
      <Node pos="s" depth="0" NCoef="0" IVar="112" Cut="1.7674053192138672e+01" cType="1" res="-9.9000000000000000e+01" rms="0.0000000000000000e+00" purity="4.9685832858085632e-01" nType="0">
        <Node pos="l" depth="1" NCoef="0" IVar="-1" Cut="5.2414016723632812e+01" cType="1" res="-9.9000000000000000e+01" rms="0.0000000000000000e+00" purity="5.6184995174407959e-01" nType="1"/>
        <Node pos="r" depth="1" NCoef="0" IVar="-1" Cut="4.5550785064697266e+01" cType="1" res="-9.9000000000000000e+01" rms="0.0000000000000000e+00" purity="4.6121993660926819e-01" nType="-1"/>
      </Node>
    </BinaryTree>
    <BinaryTree type="DecisionTree" boostWeight="1.2312882351649836e-01" itree="46">
      <Node pos="s" depth="0" NCoef="0" IVar="6" Cut="3.9315467834472656e+01" cType="0" res="-9.9000000000000000e+01" rms="0.0000000000000000e+00" purity="5.1407551765441895e-01" nType="0">
        <Node pos="l" depth="1" NCoef="0" IVar="-1" Cut="2.1949327468872070e+01" cType="0" res="-9.9000000000000000e+01" rms="0.0000000000000000e+00" purity="5.9235739707946777e-01" nType="1"/>
        <Node pos="r" depth="1" NCoef="0" IVar="250" Cut="2.7823392868041992e+01" cType="0" res="-9.9000000000000000e+01" rms="0.0000000000000000e+00" purity="4.9037951231002808e-01" nType="0">
          <Node pos="l" depth="2" NCoef="0" IVar="-1" Cut="0.0000000000000000e+00" cType="1" res="-9.9000000000000000e+01" rms="0.0000000000000000e+00" purity="5.4714977741241455e-01" nType="1"/>
          <Node pos="r" depth="2" NCoef="0" IVar="-1" Cut="0.0000000000000000e+00" cType="1" res="-9.9000000000000000e+01" rms="0.0000000000000000e+00" purity="4.4435676932334900e-01" nType="-1"/>
        </Node>
      </Node>
    </BinaryTree>
    <BinaryTree type="DecisionTree" boostWeight="1.1138500229141460e-01" itree="47">
      <Node pos="s" depth="0" NCoef="0" IVar="9" Cut="6.0458836555480957e+00" cType="0" res="-9.9000000000000000e+01" rms="0.0000000000000000e+00" purity="4.9300506711006165e-01" nType="0">
        <Node pos="l" depth="1" NCoef="0" IVar="230" Cut="2.4395391464233398e+01" cType="0" res="-9.9000000000000000e+01" rms="0.0000000000000000e+00" purity="5.0589704513549805e-01" nType="0">
